svm_type c_svc
kernel_type rbf
gamma 8.0
nr_class 3
total_sv 409
rho 0.4660740126422492 0.5707017907549451 0.38068909271296003
label 6 2 3
nr_sv 59 174 176
SV
128.0 4.564066003219852 101:0.5896223971940545 102:0.04896089026737602 103:0.001375546610441002 104:0.1 105:0.03650977721151429 106:0.0549945156809761 112:0.0341805451205379 114:0.0053049086708655754 115:0.026972529459552246 202:0.0013738911501149217 203:0.9279924768002967 
1.7686284683800868 1.4251756770584612 101:0.4050738455076207 102:0.5585066862803271 103:0.03127109888332108 104:0.2125 105:0.17633852892296933 106:0.07403546458522893 112:0.06798037325271783 114:0.00854266386688423 115:0.046247867212604314 201:0.5555555555555556 202:0.03150193617763621 203:1.0 
0.0 0.5039264630043847 101:0.6797768613070225 102:0.01366589535305597 103:2.428233338675767E-6 104:0.6375 105:0.0010668447635850415 106:0.05832824216175123 112:0.03599753434317917 114:4.706087259142088E-4 115:7.211207643457504E-4 201:0.49206349206349204 202:2.428899170449483E-6 203:0.8707002225064758 
0.0 1.1485584991746554 101:0.3361647658723333 102:0.09211176713572863 103:0.0015623373605614997 104:0.5125 105:0.03894900035009111 106:0.05890881559763202 112:0.037470008048928694 114:5.109089146098178E-4 115:0.009609924599407174 201:0.7301587301587301 202:0.0015811477353719174 203:0.946559732643083 
54.75521079077903 0.0 101:0.5618017743318088 102:0.07252564809717446 103:0.0034198262901039083 104:0.3625 105:0.05791184526583823 106:0.06771923365593617 112:0.045775901534854814 114:0.0546366326511918 115:0.056137168656807346 201:0.3333333333333333 202:0.0034154583947024982 203:0.9649279822041308 
33.996072616384204 0.0 101:0.6417111743590254 102:0.01381278513634835 103:5.139146487703807E-5 104:0.3875 105:0.006592678379074123 106:0.044772610074052976 112:0.025033166582527595 114:0.007044212139803957 115:0.006485724333180921 201:0.20634920634920634 202:5.1339550323054214E-5 203:0.8850690595363873 
0.7951498815031488 0.7433209244091068 101:0.6762377413818909 102:0.011707944821094713 103:9.543758674639396E-7 104:0.975 105:5.441161530281802E-4 106:0.055150845755015845 112:0.0334190172486982 114:2.647075126045514E-4 115:3.936080777389096E-4 201:0.9365079365079365 202:9.55091247387563E-7 203:0.8694599469582549 
0.0 1.238813318863634 101:0.6807955256123669 102:0.010754351181133576 103:1.3272687404522443E-7 104:0.8125 105:1.0119408757179616E-4 106:0.055443433801524125 112:0.03365583956901382 114:1.8910490039785556E-4 115:1.3460146165478879E-4 202:1.3760364650994838E-7 203:0.8678529030929445 
44.59852838163035 0.0 101:0.4539247049403953 102:0.06991532535840325 103:0.0026285696630144453 104:0.3375 105:0.050698216211287075 106:0.061384662329535225 112:0.0401550261535483 114:0.014293828336937394 115:0.03755630682232209 201:0.19047619047619047 202:0.0026251147658230447 203:0.9512362798561647 
4.220514827629176 0.0 101:0.4112739726529291 102:0.06710498185315676 103:0.0069710210023817285 104:0.4125 105:0.08293941830196616 106:0.05664762038092032 112:0.03910908270402068 114:0.06607203930840923 115:0.07878774267077118 201:0.06349206349206349 202:0.0069619845141125495 203:0.9526773335338568 
30.458849421296986 0.0 101:0.37608870470796857 102:0.07038151463765946 103:0.0057792363312336404 104:0.225 105:0.07546375628554357 106:0.04461465864488626 112:0.028660016386484664 114:0.059725585385935816 115:0.06771183126235225 201:0.015873015873015872 202:0.0057718367391192465 203:0.9330872815856165 
128.0 0.0 101:0.5566748718068237 102:0.030893660991871793 103:0.0011635280881364968 104:0.2125 105:0.033530570367012215 106:0.03842454342199659 112:0.020622911927364023 114:0.037298364376093705 115:0.03456772634778847 201:0.015873015873015872 202:0.0011620090434879046 203:0.9131545237064617 
19.060314654018338 0.0 101:0.6592396924673054 102:0.009467977251922756 103:1.0601695549982553E-5 104:0.4 105:0.0027078759519868906 106:0.04337058440895329 112:0.023868991516582574 114:0.002489731438824999 115:0.002630503702977288 201:0.12698412698412698 202:1.0613479762801628E-5 203:0.8763010300489142 
128.0 0.0 101:0.5305715514759458 102:0.06730231543947775 103:0.0020428566160388987 104:0.2 105:0.044623411714838024 106:0.04807809476332009 112:0.029015730873083876 114:0.04260376150850206 115:0.04226215302726053 201:0.06349206349206349 202:0.002040293244171963 203:0.9384906882007719 
41.186269036915235 0.0 101:0.6396282386674214 102:0.014748697487026199 103:8.566782807344318E-5 104:0.2375 105:0.008675102911501567 106:0.04860466248002941 112:0.02816399956119711 114:0.00722391835688886 115:0.008269616392352212 201:0.015873015873015872 202:8.555630611548813E-5 203:0.8861852991710635 
128.0 0.0 101:0.5529774190569863 102:0.05510487605619736 103:0.002455640908304516 104:0.175 105:0.048982146372768307 106:0.04763021546752994 112:0.028922889761414706 114:0.03896722812814068 115:0.04421767858047923 201:0.031746031746031744 202:0.0024526519380711565 203:0.9213254306223019 
27.360086397619504 0.0 101:0.3860842451302609 102:0.06746782031811589 103:0.004822670623773503 104:0.2875 105:0.06888416312252636 106:0.0439141510764358 112:0.027470400334634902 114:0.027800648301792474 115:0.053951424343923624 201:0.06349206349206349 202:0.004817222742250508 203:0.9544030745244028 
128.0 0.0 101:0.6105353167469573 102:0.026659212766669476 103:4.392647650319829E-4 104:0.1875 105:0.020374093859207073 106:0.03859348556792423 112:0.0202787003191277 114:0.019447964564399886 115:0.019490920532167326 201:0.047619047619047616 202:4.3869668979272313E-4 203:0.9029785305038092 
128.0 0.0 101:0.6339731228727262 102:0.0109916826232751 103:7.900502739635203E-5 104:0.1625 105:0.008308482385076905 106:0.037893655721973195 112:0.01947158890772012 114:0.008411549460852732 115:0.008408114190779994 201:0.031746031746031744 202:7.889904714267486E-5 203:0.8837899161824463 
22.415560466662665 0.0 101:0.47281090186551705 102:0.08738595030837593 103:0.0056462886153745865 104:0.325 105:0.0745837531235773 106:0.049028909581284995 112:0.0321269827503868 114:0.037194173029966165 115:0.05824518089685345 202:0.0056393869576031016 203:0.9621819934399404 
0.36565612649350465 0.0 101:0.642904236983502 102:0.019065310684793474 103:1.0890192906316504E-4 104:0.4125 105:0.009853499461482345 106:0.04896606869412942 112:0.028472324769210414 114:0.005130595613468389 115:0.00806030314381412 201:0.1111111111111111 202:1.0877648224691877E-4 203:0.8928846017441515 
13.373004650941692 0.0 101:0.4432422233216613 102:0.02919476031402749 103:0.0018238299069231359 104:0.1 105:0.0421304893325055 106:0.03546442820969549 112:0.018665989023902315 114:0.006702274421659417 115:0.03317899144641066 202:0.0018220130328533322 203:0.9232793299547711 
0.0 5.422350162344277 101:0.46606640967509605 102:0.22421471063003737 103:0.008103837145307859 104:0.1625 105:0.08947188863738416 106:0.07169857845832786 112:0.0519174467676389 114:0.0033737116249927097 115:0.04665292999606079 202:0.008094063152421846 203:0.9756848796457299 
0.0 0.9369867169425482 101:0.6615047235602826 102:0.013938009053159263 103:2.2517128416877722E-5 104:0.975 105:0.004180610953114149 106:0.05650730353976597 112:0.03453331629584755 114:0.0029847447330719973 115:0.003697437412182375 201:0.5079365079365079 202:2.249180142297739E-5 203:0.8817193525948319 
0.10643687411987077 0.0 101:0.669434871765659 102:0.014023551336249065 103:7.576373791213645E-6 104:1.0 105:0.0022140685534984155 106:0.05642288228946808 112:0.03445519259642115 114:0.0010093866324527708 115:0.0015688824899342322 201:0.746031746031746 202:7.565753960504343E-6 203:0.8761653374595281 
0.671418376786078 0.8801178649546365 101:0.681098863499515 102:0.01107329341243231 103:5.566504742029361E-7 104:0.7125 105:3.5554054307308347E-4 106:0.0562471234053646 112:0.0343080833670938 114:5.181553222566036E-4 115:4.012398480056758E-4 201:1.0 202:6.422651542409789E-7 203:0.8691523086914298 
0.3307770548340461 0.0 101:0.6723677059731518 102:0.013333912321294654 103:5.092805873879928E-6 104:0.975 105:0.001731992704402443 106:0.056789384260020406 112:0.03475090219007952 114:6.325654489745078E-4 115:0.0012197004013952777 201:0.6031746031746031 202:5.130929499307785E-6 203:0.8738424992714166 
12.22249041220956 28.060135187592625 101:0.3289527781423738 102:0.19225438275722667 103:0.08127655415398514 104:0.2125 105:0.2846577867786988 106:0.09164576040608165 112:0.11042400933141462 114:0.3627223961881391 115:0.3001483561523221 201:0.12698412698412698 202:0.08124603808589634 203:0.902691221798515 
128.0 0.0 101:0.43972360943364197 102:0.1094671235691082 103:0.019467227298278527 104:0.275 105:0.13900484665752982 106:0.036084629730270976 112:0.030777711576487232 114:0.1496360367604373 115:0.13729865563851468 201:0.1746031746031746 202:0.019451444859412786 203:0.9671174516576334 
53.54379459146841 0.0 101:0.44076470410461577 102:0.06234719700048148 103:0.007822881606949886 104:0.4 105:0.08789671164347239 106:0.029837356008201043 112:0.018134509843315688 114:0.10123600015818617 115:0.08923919947244917 201:0.20634920634920634 202:0.007817902696760429 203:0.9665531979463495 
128.0 42.88448266733435 101:0.4046842623875716 102:0.07579701001220582 103:0.016069711899221264 104:0.1875 105:0.12623861100478476 106:0.03432233687308262 112:0.027165431400813116 114:0.14882136776006397 115:0.13090860953012087 201:0.09523809523809523 202:0.01604974331707031 203:0.9329684353024749 
11.99636960411344 0.0 101:0.6001562564824308 102:0.0062731112224832875 103:1.4634449155128925E-4 104:0.1875 105:0.011513780016944777 106:0.018766965627060313 112:0.004003713488679517 114:0.008779051476685019 115:0.010945686286840818 201:0.07936507936507936 202:1.4629170524322374E-4 203:0.8957769874095768 
128.0 0.0 101:0.60299885754568 102:0.011277792003751692 103:3.8067274781944084E-4 104:0.2625 105:0.018926058549964625 106:0.01932469245108602 112:0.0046170881059503415 114:0.022389416140688373 115:0.019978905772782562 201:0.09523809523809523 202:3.803170190650615E-4 203:0.9096912561330437 
128.0 0.0 101:0.5991290248122344 102:0.012271214931355093 103:2.0607131856175372E-4 104:0.175 105:0.013770657396567909 106:0.019192269560572878 112:0.004389713725662155 114:0.009257912859635785 115:0.011972644989054995 201:0.09523809523809523 202:2.0579716875533308E-4 203:0.9055426224309412 
128.0 0.0 101:0.5923832939928041 102:0.011564192457676687 103:4.0616366045975874E-4 104:0.225 105:0.01956881393293051 106:0.019232836951944606 112:0.0045601324031382985 114:0.021083161771816062 115:0.01907743892344397 201:0.1111111111111111 202:4.057030681950021E-4 203:0.9072817118666245 
128.0 0.0 101:0.5496881284770777 102:0.046423376001684495 103:0.0019581800645659705 104:0.2 105:0.04367628208718261 106:0.03463964535030046 112:0.018088323336073537 114:0.03241145003405628 115:0.03822965141997811 201:0.09523809523809523 202:0.001955568154221107 203:0.9349252730734284 
128.0 0.0 101:0.5803995758015402 102:0.017662306278337928 103:5.559447995429951E-4 104:0.2625 105:0.02299454623467172 106:0.03127663854778033 112:0.014425305852330607 114:0.025338278296593585 115:0.02356246360605579 201:0.1746031746031746 202:5.555805853206316E-4 203:0.9179206005256759 
128.0 0.0 101:0.5780409129825097 102:0.02774098409230073 103:9.234187493828401E-4 104:0.2125 105:0.029806252369167934 106:0.03529256591439904 112:0.017926006214156125 114:0.02802549671414534 115:0.028508113368670186 201:0.25396825396825395 202:9.223282143735268E-4 203:0.927796502586414 
96.3971237480909 0.0 101:0.6238833334018202 102:0.012272813014837538 103:1.9348995877220782E-4 104:0.25 105:0.013325678671991036 106:0.03125704944809634 112:0.014165505095828226 114:0.016235054070654238 115:0.01419504226785693 201:0.14285714285714285 202:1.9365831152424226E-4 203:0.9033251491701952 
128.0 0.0 101:0.6057297357403683 102:0.01529428658297803 103:3.3889304621569864E-4 104:0.1875 105:0.01782416482130464 106:0.03221417215654514 112:0.015039435254968174 114:0.015267898554699367 115:0.017029596988515656 201:0.07936507936507936 202:3.390019022947892E-4 203:0.9052678331781226 
128.0 0.0 101:0.56776013039355 102:0.02117062968210954 103:7.282951242239788E-4 104:0.1875 105:0.026404090475086774 106:0.03318969506148084 112:0.016091546915352296 114:0.02451363903831417 115:0.025081255204798477 201:0.07936507936507936 202:7.274626274306513E-4 203:0.9157157707102506 
75.9008199901539 0.0 101:0.6120914450166058 102:0.02473238012109498 103:4.6782495628760903E-4 104:0.175 105:0.021044846239506268 106:0.031404014757641895 112:0.014469278408635199 114:0.010300850205289936 115:0.0167283844457932 201:0.09523809523809523 202:4.6732750978832567E-4 203:0.9090781219562614 
128.0 0.0 101:0.5906772113372516 102:0.019279356763513875 103:6.383744963124432E-4 104:0.2 105:0.02468264132336439 106:0.031116139190593042 112:0.014350677635926175 114:0.025442857968380275 115:0.025544443472394495 201:0.14285714285714285 202:6.376008090723961E-4 203:0.9146146121395632 
128.0 0.0 101:0.5276593189702433 102:0.02343285419394765 103:0.0011729335518773632 104:0.15 105:0.033668222080931745 106:0.031250496260224546 112:0.014819046444825935 114:0.03313549712397995 115:0.033239977195462324 201:0.07936507936507936 202:0.0011726703388898585 203:0.9247312432820355 
128.0 0.0 101:0.5939892549839209 102:0.015105344872916733 103:5.739327028608184E-4 104:0.2375 105:0.023373063499197946 106:0.029999089083777356 112:0.013401884376822782 114:0.02720624913759343 115:0.024982823435091277 201:0.14285714285714285 202:5.734070128556335E-4 203:0.9106303816155455 
67.42260011151075 0.0 101:0.6025128937185219 102:0.012253445167421334 103:4.09050821305037E-4 104:0.2375 105:0.019640327497474765 106:0.03068481840043869 112:0.01384665275055876 114:0.026088558635382498 115:0.020800449464764677 201:0.14285714285714285 202:4.0918491824302506E-4 203:0.9057345786998989 
128.0 0.0 101:0.5811332909268301 102:0.02191267804532581 103:4.7941956400250304E-4 104:0.1875 105:0.021311294600536195 106:0.031694432846579815 112:0.014712510187233236 114:0.017005689462196775 115:0.01923151501098703 201:0.07936507936507936 202:4.7907449074175074E-4 203:0.9141147397465638 
128.0 0.0 101:0.5077991283805707 102:0.017161069941712643 103:0.0010390989201936685 104:0.1625 105:0.03165427688754333 106:0.034244426770530495 112:0.017154226251943377 114:0.025738942353072482 115:0.028040038184477988 201:0.09523809523809523 202:0.0010377663365507207 203:0.9278686974505642 
12.982561115975733 0.0 101:0.5871130026407716 102:0.022111310637115123 103:7.65436904462532E-4 104:0.2125 105:0.02708392202743562 106:0.03111798412714437 112:0.01443766295902412 114:0.02074801284708414 115:0.025142581773643456 201:0.1111111111111111 202:7.644157756727276E-4 203:0.9156223500060153 
88.81000015320309 0.0 101:0.5902674377651703 102:0.015421225992716586 103:3.321480179182559E-4 104:0.175 105:0.01764003443293205 106:0.03035633620461239 112:0.013528503014219257 114:0.013656897569509639 115:0.016008798871833523 201:0.09523809523809523 202:3.3193197533140797E-4 203:0.90958181937086 
22.716905772899402 0.0 101:0.6038315150828348 102:0.012605691573753824 103:2.4102290414806658E-4 104:0.2625 105:0.01494013205496752 106:0.023877696831078765 112:0.008213302926899839 114:0.014107300987171747 115:0.014066799635514087 201:0.1111111111111111 202:2.4072836686393263E-4 203:0.905339174929619 
102.96042258057449 0.0 101:0.5793129162689565 102:0.012761378000819341 103:3.362086367318453E-4 104:0.2375 105:0.01775110523297231 106:0.024488977584741438 112:0.008773833119850832 114:0.014653401207787218 115:0.016708582853580147 201:0.07936507936507936 202:3.360482393545645E-4 203:0.9081972104294622 
69.115018079595 0.0 101:0.6200222188257204 102:0.004929883259074403 103:3.986658980141843E-5 104:0.2375 105:0.005740820413064927 106:0.02401455117792972 112:0.008187152273054464 114:0.005770512050902885 115:0.005487826466555694 201:0.031746031746031744 202:3.986669394162731E-5 203:0.8841525086118316 
89.44514271091705 0.0 101:0.6124923631556003 102:0.0053591459714891635 103:9.22055323746776E-5 104:0.2 105:0.009021278866524872 106:0.018178089686635094 112:0.00348882102952162 114:0.009663528805520159 115:0.008977417726787203 201:0.07936507936507936 202:9.213847481580295E-5 203:0.8913513788031859 
32.92037249487861 0.0 101:0.5902668521253298 102:0.007556900240745477 103:1.463914114591903E-4 104:0.3375 105:0.011515717882753669 106:0.0183906668006346 112:0.003698550952060881 114:0.009006027135767493 115:0.010612115859143791 201:0.1746031746031746 202:1.4623636338976248E-4 203:0.8976942781485213 
14.942083707376222 0.0 101:0.6150991678378799 102:0.007490433007894304 103:9.918064029885667E-5 104:0.3 105:0.009377389165275992 106:0.018295244244701307 112:0.003588649484823587 114:0.01101391288043383 115:0.009687854940246562 201:0.09523809523809523 202:9.929119710580831E-5 203:0.8937159172587184 
128.0 0.0 101:0.5990127361987324 102:0.006609590194225551 103:1.3055322166910817E-4 104:0.325 105:0.01084295892441315 106:0.017704891133825885 112:0.0031314397201780623 114:0.010150220504123428 115:0.01072407521108572 201:0.2222222222222222 202:1.3048936081982952E-4 203:0.897655216127726 
94.88599809313027 0.0 101:0.5848083559155038 102:0.005885658015607604 103:1.2629933579354067E-4 104:0.2875 105:0.01065542172826946 106:0.01774350574386744 112:0.0031598265034091344 114:0.00825563223072273 115:0.009709602840272207 201:0.2698412698412698 202:1.2660760747246287E-4 203:0.8985304164876873 
128.0 0.0 101:0.5905879729227739 102:0.013650642840668277 103:2.7175732468542657E-4 104:0.325 105:0.015900177332160502 106:0.017895946191300124 112:0.0033836883821936454 114:0.011046186319288906 115:0.014295981034337303 201:0.2857142857142857 202:2.7148044676510955E-4 203:0.9079983058024839 
-0.0 128.0 101:0.4738230706437528 102:0.20738968962790655 103:0.056053605035912654 104:0.1375 105:0.23629463059181605 106:0.2965092365189282 112:0.2546370072899898 114:0.287680980295887 115:0.25054846543506826 201:0.047619047619047616 202:0.05603855673506411 203:0.9341686148451899 
-0.0 128.0 101:0.44009948139596367 102:0.18180386028337275 103:0.05385361883507504 104:0.15 105:0.23159920277794077 106:0.32229033590927664 112:0.27387072934971873 114:0.2864960384514927 115:0.24824827704178654 201:0.047619047619047616 202:0.05378292762581857 203:0.92735431404238 
-0.0 128.0 101:0.49377527778985375 102:0.2119040197877059 103:0.06099696235842985 104:0.15 105:0.24651999505661829 106:0.28018626717721595 112:0.24411648559135504 114:0.31986941757274795 115:0.26467168852865236 201:0.047619047619047616 202:0.06099200196362718 203:0.9238882634621527 
-0.0 128.0 101:0.45639945946268323 102:0.18173439380406142 103:0.052263019408590315 104:0.175 105:0.22814436386633166 106:0.2852222519095575 112:0.24410059163361714 114:0.29106160140646525 115:0.2433433325552712 201:0.047619047619047616 202:0.05219485739619327 203:0.9293104548884655 
-23.46798269878016 0.0 101:0.6020986584215678 102:0.07127465707780278 103:0.004202188933790555 104:0.225 105:0.06426039397533645 106:0.10253961103439428 112:0.0743748713618553 114:0.06491411071933494 115:0.06507857770139189 201:0.09523809523809523 202:0.004198071883556119 203:0.9424695541438342 
-0.0 2.7883719597845475 101:0.300939139133037 102:0.15454476702461206 103:0.04165201775699782 104:0.2 105:0.20360679788353905 106:0.19907157560471594 112:0.1715432451042046 114:0.21369676119304853 115:0.20958746187183636 201:0.047619047619047616 202:0.041597281161655564 203:0.9289065112648329 
-15.308018400628804 0.0 101:0.4985954424392493 102:0.06931562136886259 103:0.007023980106568563 104:0.35 105:0.08325615003915078 106:0.08588388648768283 112:0.06265392014339644 114:0.09782889185300564 115:0.08738982038246897 201:0.09523809523809523 202:0.007014912898879979 203:0.9547294520623956 
-69.74875797010476 0.0 101:0.4058908157218033 102:0.1178240501739701 103:0.012658434537138046 104:0.3125 105:0.11197349874997645 106:0.08549556168958676 112:0.06577066278874182 114:0.11144231670375537 115:0.11370043734584716 201:0.1111111111111111 202:0.012668098638211249 203:0.9625593366075993 
-19.594935487921045 0.0 101:0.4417428695794464 102:0.11817183184996967 103:0.014083824307520998 104:0.2875 105:0.11814272996922871 106:0.0866411345843111 112:0.06754865129584219 114:0.13278789266800486 115:0.12127770006981364 201:0.1111111111111111 202:0.014087532809962599 203:0.950479919246747 
-0.0 128.0 101:0.3575771231602387 102:0.31217405367907713 103:0.11541697244047444 104:0.2 105:0.33933108898506764 106:0.3753048706676218 112:0.3404138016187597 114:0.36985118701622405 115:0.3439014222990078 201:0.1111111111111111 202:0.11531004670929743 203:0.8679090808332033 
-0.0 128.0 101:0.3055435579768394 102:0.25548650358946773 103:0.09867084089705286 104:0.1625 105:0.31370403266801883 106:0.34596597888137887 112:0.3111890407930851 114:0.4224102611571939 115:0.3334546824369576 201:0.047619047619047616 202:0.09857000772641174 203:0.8868760273886908 
-0.0 104.18281187267311 101:0.38790163596641214 102:0.276914167193041 103:0.10370210515974888 104:0.15 105:0.3216177712883616 106:0.37953376019728663 112:0.338990398948682 114:0.3240678113094666 115:0.3267368871512408 201:0.047619047619047616 202:0.10362451523284591 203:0.8781521623060448 
-0.0 108.28355264366974 101:0.33133572430640706 102:0.2432792755722838 103:0.09332189695300015 104:0.2 105:0.30506599704940174 106:0.3712729004238876 112:0.3284718206269787 114:0.2818553406142299 115:0.30790608248058365 201:0.047619047619047616 202:0.09320734727615541 203:0.8897012840191221 
-0.0 128.0 101:0.4326077555319134 102:0.09584323215979647 103:0.02568584729298649 104:0.1875 105:0.15976028520033883 106:0.10507105000449489 112:0.08904076620990865 114:0.21887215280001665 115:0.1762841901510765 201:0.1111111111111111 202:0.025678422701679752 203:0.9537902879475518 
-0.0 128.0 101:0.39618506615477417 102:0.11186781782055884 103:0.026583837566930363 104:0.1875 105:0.16253940772649542 106:0.10659350565698 112:0.09076171851457501 114:0.21897113119606237 115:0.1740664131906206 201:0.1111111111111111 202:0.026554518443253294 203:0.950388865493225 
-0.0 128.0 101:0.31624453016622567 102:0.12458379800280446 103:0.038787960056616846 104:0.1875 105:0.196460836104378 106:0.11525509093689704 112:0.10452450328339641 114:0.2835388942707468 115:0.21789014340883953 201:0.1111111111111111 202:0.03878118282271274 203:0.9359583300136775 
-0.0 128.0 101:0.3561484111371925 102:0.13369735871542845 103:0.035081947812807684 104:0.1875 105:0.1868102052142883 106:0.11310413965087032 112:0.10074640414118802 114:0.23240943805523961 115:0.2048494383477412 201:0.1111111111111111 202:0.03503517051679667 203:0.9494217841061605 
-0.0 116.75777251569832 101:0.4637457002974279 102:0.07761816486818342 103:0.012603489761103981 104:0.175 105:0.1117289107365296 106:0.06464069763849543 112:0.049077354856169236 114:0.1375056710502065 115:0.1218146644905299 201:0.1111111111111111 202:0.012601324746423188 203:0.9576641809729508 
-0.0 128.0 101:0.3470890250276518 102:0.0951792405727953 103:0.023373796228844636 104:0.175 105:0.15237273111010852 106:0.08091593407472177 112:0.06861607047872172 114:0.2026088641476865 115:0.16916297475871192 201:0.1111111111111111 202:0.023368129750331312 203:0.9534676185012035 
-0.0 61.63839410532856 101:0.31858167929273995 102:0.09994599859547164 103:0.01975960732105835 104:0.175 105:0.14004933367012246 106:0.0689273664674987 112:0.05693521152905034 114:0.1661127607358073 115:0.14937343849411858 201:0.09523809523809523 202:0.01976285425943403 203:0.9663946818853119 
-0.0 50.9087942932677 101:0.26310573129226034 102:0.1536515860125756 103:0.032557989288991056 104:0.1875 105:0.17994265390419503 106:0.0894550296741606 112:0.08079976158437428 114:0.16957368918714258 115:0.17629011153131868 201:0.07936507936507936 202:0.03251488603420471 203:0.9503953479075352 
-0.0 12.888505199796395 101:0.5357926486643697 102:0.08975077294821836 103:0.016422896734487956 104:0.1625 105:0.12762491761961597 106:0.10284868287184007 112:0.08186454033000541 114:0.17966217890854966 115:0.14071413708010191 201:0.09523809523809523 202:0.016403088129918437 203:0.9528150051266958 
-0.0 128.0 101:0.46555499634739916 102:0.09027327613910281 103:0.01507456403581536 104:0.1625 105:0.12224839091090418 106:0.10058024755141422 112:0.07926109310338965 114:0.15539394095627176 115:0.131210523936143 201:0.09523809523809523 202:0.015057639201898785 203:0.9525252964739191 
-0.0 110.94687812921707 101:0.33023427214482637 102:0.12265272558636447 103:0.0333766816719803 104:0.2 105:0.1821985433271699 106:0.09598916532014161 112:0.08638722789271182 114:0.22510806941300443 115:0.1955771188941033 201:0.12698412698412698 202:0.03333986780697208 203:0.947751505027573 
-0.0 128.0 101:0.34522187954581857 102:0.1189441993079924 103:0.037054378121575034 104:0.2 105:0.19200670690918278 106:0.09659550822990763 112:0.08900119798552716 114:0.24796543341825897 115:0.20559918844033054 201:0.12698412698412698 202:0.037006608486281754 203:0.9417826850847396 
-0.0 128.0 101:0.3752406607548574 102:0.11835964584142453 103:0.036133742106637445 104:0.2 105:0.18959889752091943 106:0.09040423719639822 112:0.08364313720426104 114:0.23896110182538977 115:0.20144450287013543 201:0.12698412698412698 202:0.036153746377664726 203:0.9469744800377725 
-0.0 78.17296557341314 101:0.3941927953488167 102:0.11852623478344886 103:0.03538043507286791 104:0.2 105:0.18760580356783482 106:0.09373651302377893 112:0.08579870322679094 114:0.22997635587348525 115:0.19772736254289555 201:0.12698412698412698 202:0.03535153682076856 203:0.9396555328366366 
-0.0 97.54662664883874 101:0.46444946574562473 102:0.21839746843099686 103:0.042963950289534716 104:0.15 105:0.20679792814343376 106:0.3228750368025871 112:0.26959427754077125 114:0.24965073501264215 115:0.21882328697638512 201:0.06349206349206349 202:0.042910120416665934 203:0.9374962245351736 
-0.0 128.0 101:0.6791278501220328 102:0.19764946689608945 103:0.03634182144299383 104:0.2125 105:0.19014576163951627 106:0.3619151374141703 112:0.29769378884004694 114:0.24300341076289494 115:0.20228382580660886 201:0.06349206349206349 202:0.03632677709253122 203:0.9442956246351124 
-0.0 126.36060721293953 101:0.6754130334617707 102:0.20171742407707796 103:0.03050102603044807 104:0.175 105:0.17414628221193865 106:0.3654373903158815 112:0.29804482530915843 114:0.2285557163443545 115:0.18190087092964438 201:0.06349206349206349 202:0.03046490371682446 203:0.9498881192288086 
-12.290560804533264 0.0 101:0.3965299308531592 102:0.16376523612452473 103:0.04570081171490943 104:0.2125 105:0.2133018490869392 106:0.0834614945508304 112:0.08387727197006961 114:0.23955405117059084 115:0.22974249206596678 201:0.12698412698412698 202:0.04566513619618145 203:0.9396694061361412 
-0.0 75.80529885453883 101:0.34196350072513904 102:0.15010558184527853 103:0.03836385258678393 104:0.2125 105:0.19538052097989167 106:0.1268326970956323 112:0.11331252459868359 114:0.26327192283027734 115:0.20955874629580656 201:0.12698412698412698 202:0.03835306665310058 203:0.9467381483532399 
-0.0 128.0 101:0.5068224445705054 102:0.26342767819753216 103:0.08036446948991888 104:0.175 105:0.283052664486804 106:0.36876367571057095 112:0.32127731815603855 114:0.36907570145578766 115:0.2958684528763795 201:0.06349206349206349 202:0.08025952622583023 203:0.910315719451523 
-0.0 128.0 101:0.47889305963566886 102:0.21960755768207257 103:0.06604150281560511 104:0.2 105:0.2565358127416635 106:0.3060424044601166 112:0.2664863345102071 114:0.3188453726312577 115:0.2739400707563056 201:0.06349206349206349 202:0.06601357229332808 203:0.9214720039735775 
-0.0 69.28246116816827 101:0.38402532585332755 102:0.21199115679523056 103:0.058553807981929225 104:0.2 105:0.24152029340849054 106:0.29345706245621217 112:0.2533664472677626 114:0.23046638927223864 115:0.24007442873868529 201:0.047619047619047616 202:0.05848734824809623 203:0.9248835518433742 
-0.0 13.549570854230623 101:0.5400586926561247 102:0.2150032947643946 103:0.050127920308921645 104:0.175 105:0.22342311001897489 106:0.27840019217189993 112:0.23778438075390881 114:0.32568932781252957 115:0.24324750700973946 201:0.06349206349206349 202:0.05006452111528448 203:0.9358273104674394 
-0.0 128.0 101:0.5278068314683859 102:0.19802975587011987 103:0.0450131727901463 104:0.15 105:0.21168647645703684 106:0.24089723984262967 112:0.20598548743192693 114:0.2634605147757533 115:0.22838103929566342 201:0.12698412698412698 202:0.04498441914445894 203:0.9420394995628805 
-0.0 34.568966450064515 101:0.4222133804500526 102:0.2011108907703049 103:0.04544391318070051 104:0.225 105:0.21269978521611074 106:0.27596410706774926 112:0.233728233619126 114:0.2155831238419638 115:0.223278019345593 201:0.06349206349206349 202:0.04538333468596873 203:0.9454698438088354 
-0.0 128.0 101:0.4119917712413641 102:0.2036064150476251 103:0.051200644600329644 104:0.175 105:0.22580748583012655 106:0.21734078242768656 112:0.19056227687074093 114:0.29748047016756074 115:0.24092046225928226 201:0.06349206349206349 202:0.05116853223314635 203:0.9427975594886301 
-0.0 7.376295171547222 101:0.433493071952771 102:0.08721022850490566 103:0.014180970190691389 104:0.175 105:0.11855156162526585 106:0.10351982418639138 112:0.0810795312558166 114:0.1531089800047988 115:0.13043354541333307 201:0.1111111111111111 202:0.014171955454471587 203:0.9585137230412806 
-0.0 128.0 101:0.482001470171741 102:0.08205765881907036 103:0.014865776201041396 104:0.175 105:0.1213946577118685 106:0.09236639830430986 112:0.07258608461489409 114:0.15889642631320647 115:0.13403099795082016 201:0.1111111111111111 202:0.014847705015308833 203:0.9615860573966102 
-9.279480562827967 0.0 101:0.3459523626787908 102:0.11360519171959302 103:0.030899451716744363 104:0.1875 105:0.17528393352263288 106:0.06105076897843431 112:0.05761234561193111 114:0.23660123939705663 115:0.19435085942734412 201:0.1111111111111111 202:0.030858405970192963 203:0.9159114024979051 
-9.760547989172682 0.0 101:0.33184061476355287 102:0.1160129554879956 103:0.034194341099133864 104:0.1875 105:0.18442413670154126 106:0.05904112811867139 112:0.05807645379711355 114:0.26406186767518547 115:0.2061995672415681 201:0.1111111111111111 202:0.03415721224608053 203:0.9239097573812195 
-0.0 47.53578744284558 101:0.513090272509125 102:0.30531067989821026 103:0.09836681846039395 104:0.275 105:0.31321943830031723 106:0.609655103574939 112:0.5158342708356055 114:0.37549273352030205 115:0.32391611029789497 201:0.12698412698412698 202:0.09824255294506531 203:0.8771017023105364 
-0.2595879448857669 80.61984549957705 101:0.676318965371876 102:0.3224881772817195 103:0.0809309264780807 104:0.2375 105:0.2840506027187006 106:0.6976475795052931 112:0.579667668837323 114:0.312175922233275 115:0.2949670633083006 201:0.14285714285714285 202:0.08086667172681115 203:0.8978762346396443 
-0.0 32.07336302832175 101:0.6168312999684252 102:0.317199632446335 103:0.08526555191457061 104:0.2625 105:0.2915741849298116 106:0.6373002427019634 112:0.5333419530248892 114:0.33180672705131364 115:0.3047742218831557 201:0.12698412698412698 202:0.08520533783824744 203:0.8856486285852503 
-0.0 49.57703303483301 101:0.5149015096968611 102:0.25792404410737646 103:0.06942530499444272 104:0.25 105:0.2630411414581797 106:0.472060073126998 112:0.3977666849571042 114:0.3028444083256435 115:0.2669190227391341 201:0.1111111111111111 202:0.06934792700219532 203:0.891146251682441 
-0.0 80.6146258452929 101:0.5798269534768422 102:0.31039191957369877 103:0.08207160891687709 104:0.25 105:0.2860496233794188 106:0.5674379033403694 112:0.47726476553758646 114:0.31029100560561934 115:0.294463553568194 201:0.047619047619047616 202:0.08198510896606391 203:0.8912595505652607 
-0.0 123.92450068213206 101:0.625904584643997 102:0.26588979646524624 103:0.05556245162191889 104:0.2875 105:0.23525446740454248 106:0.523647263455323 112:0.4334729705708873 114:0.2510778894336765 115:0.24217109849599153 201:0.1111111111111111 202:0.05548998531325062 203:0.9063135338899909 
-0.0 31.25817345588144 101:0.5128054119973071 102:0.2505615712819301 103:0.06748602986135468 104:0.2625 105:0.2593328190884499 106:0.48572515402211336 112:0.40780662456455535 114:0.29765316095723915 115:0.2637060675411177 201:0.1111111111111111 202:0.06739607293223394 203:0.8968325154156549 
-0.0 64.4398083066553 101:0.1328683339108161 102:0.27443387114493817 103:0.08503040969703386 104:0.225 105:0.2911710266079036 106:0.2453954245660184 112:0.22828364645643834 114:0.33141180827308536 115:0.30354056053224426 201:0.047619047619047616 202:0.08492104528786194 203:0.8783187576508891 
-25.874377989501955 0.0 101:0.39935241525960613 102:0.05383757039864145 103:0.009513372124419486 104:0.3 105:0.09699148634603284 106:0.026901983589957292 112:0.016912460999821136 114:0.12305197069897447 115:0.10132524610024185 201:0.1111111111111111 202:0.009500989640061932 203:0.9492610468945512 
-0.0 64.89649161296906 101:0.40351231480476374 102:0.07981724507273713 103:0.01800105544480479 104:0.1625 105:0.13364465981494777 106:0.03866980841891758 112:0.03186964001434793 114:0.1846800734107619 115:0.148545442062498 201:0.09523809523809523 202:0.017977167754922536 203:0.9482677967758968 
-0.0 7.790463178996857 101:0.40823981142419385 102:0.08648807425748394 103:0.01749014437933752 104:0.1625 105:0.13172581542891937 106:0.025747778410693735 112:0.021307713625025364 114:0.14377704787501905 115:0.13757567319598962 201:0.09523809523809523 202:0.01746855546586405 203:0.955277172613865 
-63.723653464151276 0.0 101:0.39630540328907965 102:0.08043318692598815 103:0.017058544452909212 104:0.225 105:0.13008289146484114 106:0.01775144757827442 112:0.01469245762312179 114:0.16640303835077233 115:0.14201879398036377 201:0.09523809523809523 202:0.017036412659205143 203:0.9513181640175019 
-6.302784831982164 0.0 101:0.3378052073048255 102:0.0974698273472649 103:0.018205737941476473 104:0.225 105:0.13440574108634654 106:0.018624449617714863 112:0.016152826714907663 114:0.15659816054861136 115:0.14341742416835598 201:0.09523809523809523 202:0.01818513427204972 203:0.9538183283897537 
-0.0 45.01583196370507 101:0.3402343352111157 102:0.1276793344336021 103:0.03657373714042134 104:0.1875 105:0.19075342973070147 106:0.13635116312324913 112:0.11975992372672781 114:0.2568613928421981 115:0.2109196425872295 201:0.1111111111111111 202:0.036524995303269615 203:0.9204080769135204 
-0.0 128.0 101:0.32249964725527697 102:0.22137731360026697 103:0.046694242846983335 104:0.15 105:0.21561426516539456 106:0.12652433218967826 112:0.11768664064928107 114:0.24646285194476403 115:0.22288125420307847 201:0.1111111111111111 202:0.04663265188361341 203:0.9328834628141119 
-0.0 61.02982460091118 101:0.4600077074408234 102:0.16213885373047018 103:0.04832020943735785 104:0.1 105:0.21934658653770112 106:0.2997407333708647 112:0.2537241530221221 114:0.29393471053238174 115:0.2387618655536582 201:0.047619047619047616 202:0.048277426005645586 203:0.9183854693583967 
-0.0 128.0 101:0.5461243111408396 102:0.16821029897558504 103:0.04838763033196244 104:0.1 105:0.2194999811389306 106:0.32798239691186043 112:0.2759789893202597 114:0.29441999498491606 115:0.24555418619140548 201:0.031746031746031744 202:0.04832409736697517 203:0.9315087622501602 
-0.0 128.0 101:0.3837591471461716 102:0.09647282852477251 103:0.024504206644640977 104:0.1375 105:0.1560282000929075 106:0.13196303131214632 112:0.10961310245288244 114:0.20722280845611674 115:0.16267717885881136 201:0.047619047619047616 202:0.024475529542021507 203:0.9486921331382079 
-0.0 128.0 101:0.27579967704096964 102:0.19779260364395446 103:0.07243564547755527 104:0.1 105:0.26869644003351145 106:0.19320254397812153 112:0.18239587195083862 114:0.35507054798660626 115:0.28282011223241826 201:0.047619047619047616 202:0.07237084520619176 203:0.9098341938935105 
-0.0 128.0 101:0.37894186992679485 102:0.10274609450964874 103:0.03681505200939493 104:0.125 105:0.19138368380735354 106:0.07879493467032812 112:0.07501546356338343 114:0.27210576531052905 115:0.21276609593412427 201:0.047619047619047616 202:0.03678792302528049 203:0.9385845567148753 
-0.0 128.0 101:0.3003453976588794 102:0.09398023417328279 103:0.029119643450689525 104:0.1375 105:0.17014324108065607 106:0.10361281149364251 112:0.08988532182718073 114:0.1927544488646272 115:0.17734864075962667 201:0.047619047619047616 202:0.02910890196994975 203:0.9493193751707623 
-0.0 18.340761541878813 101:0.23547103748728887 102:0.21631427053296343 103:0.07153739950073834 104:0.1 105:0.26702148281720267 106:0.16769766111755127 112:0.16248333394886663 114:0.2436407953367642 115:0.25548919184353047 201:0.06349206349206349 202:0.07148586151162702 203:0.9106544256736615 
-0.0 128.0 101:0.4405155942219713 102:0.10190030453014313 103:0.018436536831475926 104:0.1125 105:0.1352588182857156 106:0.07536367986452781 112:0.06122317938136005 114:0.1398350032437856 115:0.13311658284194366 201:0.06349206349206349 202:0.01844256559147879 203:0.9399808839076297 
-0.0 128.0 101:0.39039854454341855 102:0.1079452971708538 103:0.03117193646624731 104:0.1 105:0.17605775891596506 106:0.10835468977992832 112:0.09479267750331 114:0.21648273641344576 115:0.18575671643530542 201:0.047619047619047616 202:0.03113357264813862 203:0.949697860593745 
-0.0 128.0 101:0.2988110843166403 102:0.18145915373660176 103:0.07289231821733412 104:0.1125 105:0.2695440146846766 106:0.20471749383105597 112:0.19142696143806348 114:0.31246060918751045 115:0.2762161161972456 201:0.06349206349206349 202:0.07306772862530628 203:0.9068492505276531 
-0.0 128.0 101:0.32339506485877073 102:0.1301853232097108 103:0.040085709921974265 104:0.1125 105:0.19973036870344227 106:0.07744040463376567 112:0.07591285200447909 114:0.2618352039878825 115:0.20227414908329122 201:0.047619047619047616 202:0.040038651418899 203:0.9353342388368835 
-0.0 128.0 101:0.31046142902706075 102:0.132924429739056 103:0.045220656075241984 104:0.1375 105:0.21217517941766145 106:0.191572341975601 112:0.16748319585458704 114:0.24809811640869664 115:0.21980003872719336 201:0.047619047619047616 202:0.045166428073429576 203:0.9250723069023898 
-0.0 43.80093197431002 101:0.4418512741841392 102:0.10405546883138629 103:0.028073342133605617 104:0.1 105:0.1670476128469736 106:0.12077484978260433 112:0.10278862227841816 114:0.19860614782354058 115:0.18239012968379198 201:0.047619047619047616 202:0.028043124520294078 203:0.9481241063079395 
-0.0 128.0 101:0.43398847730995094 102:0.10024317414944088 103:0.027449630844764178 104:0.1 105:0.16517477897317223 106:0.12046304484390923 112:0.1021894222185118 114:0.2504407373500228 115:0.18341598711766727 201:0.047619047619047616 202:0.02741302095429648 203:0.948707793635045 
-0.0 128.0 101:0.4193660111683794 102:0.12805592100295649 103:0.04496216884329293 104:0.1 105:0.21156617017508192 106:0.1195307265443002 112:0.11131090674415346 114:0.3120483427247832 115:0.23444133890950716 201:0.047619047619047616 202:0.04490931431160666 203:0.9389898757168791 
-0.0 34.20404578857574 101:0.4202625242113193 102:0.13444611930162353 103:0.04073703332531271 104:0.1 105:0.20135135547405947 106:0.1364591856382257 112:0.12212834321963699 114:0.26313545198649163 115:0.2221486047158245 201:0.047619047619047616 202:0.040685107596719165 203:0.9385969375692087 
-0.0 21.944520313265436 101:0.39506339235274957 102:0.1509686251533316 103:0.05280499093987724 104:0.1 105:0.22932737593334104 106:0.14106808475948254 112:0.1322507979632469 114:0.30956873248624667 115:0.25595792376320486 201:0.047619047619047616 202:0.05277212187100903 203:0.9262664804886842 
-0.0 128.0 101:0.3496570779521774 102:0.14097301613089278 103:0.048544403649329326 104:0.1 105:0.21985625586082203 106:0.1478601412821949 112:0.13521368968931635 114:0.2897207960370062 115:0.23970256013175054 201:0.047619047619047616 202:0.048479893786154256 203:0.9328480377524457 
-100.10413885764736 0.0 101:0.45069996543897406 102:0.07338541574486243 103:0.006288160844991784 104:0.225 105:0.07874227751403196 106:0.03182716744929024 112:0.01870876935147926 114:0.045923498604688626 115:0.06718191698915048 201:0.15873015873015872 202:0.006282937162320729 203:0.9615173723902503 
-6.262933061437659 0.0 101:0.4627841478244812 102:0.05729884625116515 103:0.005315868662826884 104:0.1875 105:0.07235068960539431 106:0.02346026116886153 112:0.011324390601531963 114:0.058272509654208784 115:0.06448118381691084 201:0.07936507936507936 202:0.00531468266880955 203:0.9450680385972753 
-128.0 0.0 101:0.5030918022571939 102:0.03720239477323777 103:0.001962182576908873 104:0.175 105:0.04372150692436925 106:0.017654105316122885 112:0.004351202313784504 114:0.04290527969497327 115:0.03945035536474923 201:0.06349206349206349 202:0.001961526548713763 203:0.9300857708629799 
-128.0 0.0 101:0.5030918022571939 102:0.03720239477323777 103:0.001962182576908873 104:0.175 105:0.04372150692436925 106:0.017654105316122885 112:0.004351202313784504 114:0.04290527969497327 115:0.03945035536474923 201:0.06349206349206349 202:0.001961526548713763 203:0.9300857708629799 
-128.0 0.0 101:0.611775807028482 102:0.018374113732781784 103:3.1971396599359686E-4 104:0.1375 105:0.017295638232049618 106:0.026816505326827524 112:0.01064986067681465 114:0.01164125843610756 115:0.015440728751324576 201:0.06349206349206349 202:3.1940018276058115E-4 203:0.9064523290328467 
-128.0 0.0 101:0.611775807028482 102:0.018374113732781784 103:3.1971396599359686E-4 104:0.1375 105:0.017295638232049618 106:0.026816505326827524 112:0.01064986067681465 114:0.01164125843610756 115:0.015440728751324576 201:0.06349206349206349 202:3.1940018276058115E-4 203:0.9064523290328467 
-128.0 0.0 101:0.619568497440258 102:0.010760604998761327 103:7.760415845129826E-5 104:0.2 105:0.008229464311312907 106:0.024339605841100412 112:0.008476542777172665 114:0.006671321890660389 115:0.00720935157932464 201:0.14285714285714285 202:7.771490207763336E-5 203:0.8906258357565874 
-128.0 0.0 101:0.6311835259574483 102:0.004967405785220289 103:2.8616272440440388E-5 104:0.3 105:0.0047808524265203715 106:0.024608636028045215 112:0.00866139574403177 114:0.0065982049450506175 115:0.0049078970724544665 201:0.2222222222222222 202:2.858848624320447E-5 203:0.8828290711710871 
-128.0 0.0 101:0.5734005370203495 102:0.01875247032312097 103:3.527540362409553E-4 104:0.225 105:0.01819689243592513 106:0.023737601004701125 112:0.00817588214600136 114:0.00822344880196389 115:0.013055758858122648 201:0.09523809523809523 202:3.5270863789941815E-4 203:0.9098000155881558 
-63.46810842386806 0.0 101:0.4864867086787862 102:0.08562087761704158 103:0.009539615559586533 104:0.1125 105:0.097126003883039 106:0.07803388352660294 112:0.057891025973810996 114:0.0607798479621902 115:0.0903323382842939 201:0.031746031746031744 202:0.009526891410314847 203:0.926405181509441 
-1.9963327893075657 0.0 101:0.23863253024273023 102:0.14634508151517822 103:0.06971825263974006 104:0.1 105:0.2635967969122072 106:0.04370512658880571 112:0.0680801411924442 114:0.37052272754564813 115:0.2891621252915386 201:0.047619047619047616 202:0.06963766102719637 203:0.9103566197807966 
-0.0 15.43165958747117 101:0.28429069022292575 102:0.13809635583212254 103:0.056435498241456224 104:0.1 105:0.23710025745615587 106:0.061171720349095196 112:0.0732063540522872 114:0.3063400252613343 115:0.24893186676708537 201:0.047619047619047616 202:0.056369888257202336 203:0.9287072215312592 
-128.0 0.0 101:0.5526265519525024 102:0.031249788656547314 103:0.0011926611751828405 104:0.25 105:0.03395516074072862 106:0.031611887096479954 112:0.015124976406169919 114:0.023224862867719638 115:0.029532673539115862 201:0.25396825396825395 202:0.0011930429050770776 203:0.9292942085668295 
-5.55327922455285 0.0 101:0.48697291660747183 102:0.016835278062935975 103:9.548425114218365E-4 104:0.3 105:0.030319182951092396 106:0.022724868674086476 112:0.007765824293809104 114:0.019500638095862156 115:0.024958290188520946 201:0.2698412698412698 202:9.545627180908521E-4 203:0.9239592764219843 
-128.0 0.0 101:0.5897798143391259 102:0.015460939884674615 103:4.976820514098719E-4 104:0.3 105:0.02172452670956784 106:0.027517167447371777 112:0.011338527660348922 114:0.02904667986066367 115:0.022486336749708097 201:0.20634920634920634 202:4.974250962052737E-4 203:0.9180309604368805 
-128.0 0.0 101:0.5897798143391259 102:0.015460939884674615 103:4.976820514098719E-4 104:0.3 105:0.02172452670956784 106:0.027517167447371777 112:0.011338527660348922 114:0.02904667986066367 115:0.022486336749708097 201:0.20634920634920634 202:4.974250962052737E-4 203:0.9180309604368805 
-128.0 0.0 101:0.5590010414609613 102:0.017498777899120913 103:6.999539186501342E-4 104:0.2125 105:0.025873604106874254 106:0.028705629030543026 112:0.012438619814428573 114:0.03142078614854612 115:0.026526947619802507 201:0.06349206349206349 202:6.998842983422743E-4 203:0.9182078322178348 
-128.0 0.0 101:0.5767027276057733 102:0.015867322378715795 103:3.205023690605166E-4 104:0.1875 105:0.017317671776386687 106:0.032295212451369126 112:0.015092789994313224 114:0.016198907152521685 115:0.016021454363438003 201:0.12698412698412698 202:3.202755966394101E-4 203:0.9090055024317212 
-128.0 0.0 101:0.5572264355212737 102:0.018306901007056064 103:7.520878786156541E-4 104:0.1625 105:0.02684152407070587 106:0.026242819601123644 112:0.01047813390478132 114:0.021163449933058128 115:0.025383020149097005 201:0.06349206349206349 202:7.513524282476046E-4 203:0.921461118096357 
-128.0 0.0 101:0.5278220067079933 102:0.020227953125469413 103:0.0012044069378830617 104:0.275 105:0.03412487718302417 106:0.024695992906507466 112:0.009532298781420692 114:0.028373208550405298 115:0.03310271520624404 201:0.06349206349206349 202:0.001205433603803892 203:0.9313902513115658 
-128.0 0.0 101:0.5742475865809507 102:0.029011392999692628 103:0.00145270050813617 104:0.2125 105:0.0375362118364608 106:0.02362317850240038 112:0.008832628155802963 114:0.03904885513544718 115:0.03722585724358479 201:0.07936507936507936 202:0.0014508768491693818 203:0.9287353778813946 
-79.99899283976922 0.0 101:0.5508178971540283 102:0.03030619068176517 103:0.0015182455185144598 104:0.1375 105:0.03838698363393547 106:0.03205800994287738 112:0.015704767703462314 114:0.04055415107862751 115:0.03821699729800459 201:0.23809523809523808 202:0.001519087717446936 203:0.9364052113055672 
-128.0 0.0 101:0.6065853425515928 102:0.01415116094143061 103:3.5401686965709836E-4 104:0.225 105:0.018230483956501956 106:0.04103018011992304 112:0.02219777533701418 114:0.020515446552888384 115:0.019217271338659116 201:0.06349206349206349 202:3.537463725443377E-4 203:0.9077726942610596 
-128.0 0.0 101:0.6284536660445 102:0.0126956031464098 103:1.1419572941774692E-4 104:0.25 105:0.010103871371364075 106:0.04056174250538904 112:0.02165907762892293 114:0.007268758486177251 115:0.009328558374087805 201:0.12698412698412698 202:1.140879780211042E-4 203:0.8964305157806406 
-60.25116232792436 0.0 101:0.5679512362761174 102:0.06989177931607554 103:0.0024761665132917113 104:0.1375 105:0.04918892687237884 106:0.05346600007024441 112:0.03365475766552982 114:0.042036143189405836 115:0.044859788917000265 201:0.031746031746031744 202:0.00247333253319939 203:0.9400310794722986 
-128.0 0.0 101:0.6449784382857002 102:0.012642726022103772 103:6.205203929799056E-5 104:0.1875 105:0.007299343992605449 106:0.03858529136392856 112:0.02002132520457091 114:0.006678842913367504 115:0.0068453620754810865 201:0.06349206349206349 202:6.197802923474021E-5 203:0.8864728147480577 
-128.0 0.0 101:0.628653995279011 102:0.008252191219080312 103:4.4160166702642105E-5 104:0.2875 105:0.006070893681128521 106:0.036320153791720336 112:0.01817201480332828 114:0.005222891796995559 115:0.00553866389155788 201:0.12698412698412698 202:4.4171340782932493E-5 203:0.8858001550151579 
-128.0 0.0 101:0.6065408725341271 102:0.025761102296243007 103:4.0133677561994833E-4 104:0.1875 105:0.019448684801873665 106:0.036122471319280744 112:0.018250083282196124 114:0.01921578780475538 115:0.01803971619204952 201:0.031746031746031744 202:4.0122533095008966E-4 203:0.9132937140689589 
-128.0 0.0 101:0.632581272085372 102:0.008648577400568945 103:7.297678310430749E-5 104:0.1875 105:0.007963273396702312 106:0.03384927863769747 112:0.016187028173491814 114:0.008083108162157848 115:0.007856151181518438 201:0.047619047619047616 202:7.300179956840556E-5 203:0.8888493404062334 
-128.0 0.0 101:0.5628357136112185 102:0.02009243217849625 103:5.053962641869806E-4 104:0.25 105:0.02189679949481583 106:0.02715034821175014 112:0.011046398223080142 114:0.022926786235382805 115:0.021023732082233095 201:0.06349206349206349 202:5.047229677235495E-4 203:0.9184175073710912 
-9.210085418162016 0.0 101:0.558184117186339 102:0.022681487420416684 103:7.706687417314261E-4 104:0.2125 105:0.027178347390398053 106:0.02428284390165272 112:0.008902554090794195 114:0.024504168075708415 115:0.025798552731284154 202:7.707862536837648E-4 203:0.9255629664879195 
-128.0 0.0 101:0.596358936054127 102:0.01190178464558512 103:3.02380884295767E-4 104:0.2125 105:0.0168041856171963 106:0.0233713472259562 112:0.007844554132111622 114:0.014051611661093935 115:0.01598711879879514 201:0.1111111111111111 202:3.0201973792124825E-4 203:0.9089190861006629 
-128.0 0.0 101:0.5803902920265449 102:0.017453265501347584 103:4.928846084763805E-4 104:0.3125 105:0.021616717339672114 106:0.021598119188188394 112:0.006537084361000917 114:0.0209804794877915 115:0.021155484130547964 201:0.25396825396825395 202:4.922275471860057E-4 203:0.9139368431403818 
-128.0 0.0 101:0.5607970981880193 102:0.01828486824342738 103:9.961846700838487E-4 104:0.3625 105:0.030981326640764903 106:0.024296510646816465 112:0.009067122364459496 114:0.03244016474821287 115:0.0327764082419916 201:0.2698412698412698 202:9.948837932912923E-4 203:0.9263346059856457 
-128.0 0.0 101:0.5656111585214793 102:0.01456407113699068 103:6.671995855085024E-4 104:0.1625 105:0.025246957351147063 106:0.02402482794257853 112:0.008623007289240746 114:0.02288051422123655 115:0.024256985934265705 201:0.015873015873015872 202:6.666729324055093E-4 203:0.913827190975909 
-0.0 128.0 101:0.2953817867450371 102:0.26070548729405346 103:0.12710845433652718 104:0.075 105:0.356133227484906 106:0.3515479644243291 112:0.32705368342366853 114:0.4138970806689543 115:0.3784044740446502 201:0.015873015873015872 202:0.12698226575437513 203:0.8438690300416343 
-0.0 10.463484190046826 101:0.4077286945639529 102:0.0857198494581314 103:0.02079080303907972 104:0.125 105:0.14367278711153977 106:0.027919758367895613 112:0.02520232189853314 114:0.18667258174456405 115:0.15788608344732089 201:0.06349206349206349 202:0.02076938667501578 203:0.9566569789047167 
-0.0 128.0 101:0.4070563684563667 102:0.07750192025039614 103:0.02125844091646886 104:0.125 105:0.14528633380102002 106:0.03929517469427021 112:0.03447116950456605 114:0.17647301779435418 115:0.16291388124855835 201:0.06349206349206349 202:0.021230656953722712 203:0.9539730093591012 
-0.0 128.0 101:0.33918000551270844 102:0.12130189948324617 103:0.03276263130817103 104:0.15 105:0.18050917460165386 106:0.04039068631499477 112:0.04269023118764815 114:0.1813342851848148 115:0.17765301973713674 201:0.06349206349206349 202:0.032722970818299064 203:0.9531164574217067 
-0.5594489217639383 41.8080736919337 101:0.19546174290975343 102:0.18999911276102371 103:0.09789542061343523 104:0.075 105:0.3124665739249053 106:0.16465838408835318 112:0.17356373957319282 114:0.40693593775033804 115:0.3433978408655406 201:0.047619047619047616 202:0.09791680361220247 203:0.8748729187890633 
-0.0 128.0 101:0.5252208161174914 102:0.28861600793928616 103:0.11755587494678225 104:0.0875 105:0.3424664694888947 106:0.48697214026997393 112:0.42692765370982283 114:0.39141305594215503 115:0.35187076338999845 201:0.047619047619047616 202:0.11740283457646628 203:0.8644980221783403 
-0.0 128.0 101:0.542291087055523 102:0.24453620032435694 103:0.07320662106982484 104:0.075 105:0.27012581235493305 106:0.40894152287573005 112:0.34971619355864214 114:0.2402202702081981 115:0.2609853868210958 201:0.047619047619047616 202:0.07322872970528732 203:0.9038109315588134 
-0.0 89.32190430398605 101:0.5084332340231852 102:0.3034067693005353 103:0.12057803246977847 104:0.075 105:0.34684837066700436 106:0.5215225880655786 112:0.4546769660494953 114:0.3549057377134566 115:0.35706875372779057 201:0.047619047619047616 202:0.1204776146305509 203:0.8583938355821723 
-0.0 33.30139055454872 101:0.6087741616888437 102:0.2806532444497494 103:0.08176387615830433 104:0.075 105:0.28551170424942723 106:0.4805762551721861 112:0.40899292908838986 114:0.23974869737583177 115:0.28192361809405886 201:0.047619047619047616 202:0.08167272599076268 203:0.8931281782071662 
-0.0 128.0 101:0.5881236966285792 102:0.2966849112652497 103:0.09859768278611988 104:0.1 105:0.3135874911122761 106:0.5245094675621345 112:0.4493323739139756 114:0.2791808547753711 115:0.3107650081334576 201:0.047619047619047616 202:0.0984930106814897 203:0.8970157116936275 
-0.0 128.0 101:0.5553399640750509 102:0.27284027956945617 103:0.06665399070202893 104:0.125 105:0.25772545778305317 106:0.4593832097432038 112:0.3867611524605284 114:0.2417170501275565 115:0.24985712263006843 201:0.047619047619047616 202:0.06656886699099518 203:0.9171241224006863 
-0.0 128.0 101:0.5397888854511887 102:0.30323836917705616 103:0.09909335811610069 104:0.125 105:0.3143762629054566 106:0.5260940532396307 112:0.4507410601404871 114:0.3381427936854403 115:0.32260029334866064 201:0.047619047619047616 202:0.09897030911194894 203:0.9048115479344827 
-45.65727234103428 0.0 101:0.4537196305509489 102:0.11037787531416379 103:0.01402078476558588 104:0.275 105:0.1178766777380145 106:0.0704554102290053 112:0.05460004249936326 114:0.13887518375756672 115:0.12039061510670206 201:0.2857142857142857 202:0.014093547457857711 203:0.9600136577672074 
-0.0 128.0 101:0.3910599518113464 102:0.09201301932556263 103:0.02419479809164611 104:0.15 105:0.15503618285654536 106:0.06392306614029432 112:0.05572459005122007 114:0.1991395447350403 115:0.1671520803958934 201:0.047619047619047616 202:0.024173329814813134 203:0.9625691156659337 
-0.0 128.0 101:0.40343802480327284 102:0.11273815525661982 103:0.029373239054105108 104:0.1375 105:0.17088512597928607 106:0.07353105468303366 112:0.06643769737881537 114:0.20563869481206978 115:0.1789064629698354 201:0.047619047619047616 202:0.02937455823615233 203:0.9509143442161304 
-0.0 5.253411186180159 101:0.4634632372899158 102:0.08220320177605742 103:0.01459972191054871 104:0.15 105:0.12029802696347647 106:0.06362342642955594 112:0.049516529219068385 114:0.13864941664116381 115:0.12531014095370735 201:0.047619047619047616 202:0.01458685203314948 203:0.9617267034607327 
-0.0 128.0 101:0.6443710770025378 102:0.37873796640235885 103:0.09935392137054712 104:0.0875 105:0.3147901080954493 106:0.48896338895438385 112:0.421924977292133 114:0.3298422189687784 115:0.31588187130429535 201:0.015873015873015872 202:0.09925799678835953 203:0.8832495511288135 
-0.0 128.0 101:0.5637720942336435 102:0.33435474068388304 103:0.1132014108158268 104:0.1125 105:0.3360525474706617 106:0.4521710747368555 112:0.3985101152078321 114:0.41472306654617713 115:0.3533569671067514 201:0.047619047619047616 202:0.11306628553061997 203:0.8709211327730607 
-0.0 128.0 101:0.5106934551253135 102:0.3268665059941348 103:0.09170240388462471 104:0.1125 105:0.3024021086190562 106:0.38933946764919164 112:0.34177728715854305 114:0.3425759001673849 115:0.3116571943126281 201:0.047619047619047616 202:0.09166936379491901 203:0.8879162376400532 
-0.0 128.0 101:0.5522894484942407 102:0.32510869576229745 103:0.12070203960041069 104:0.1375 105:0.3470269919940529 106:0.5070479670532697 112:0.4435388763228828 114:0.4001005623682378 115:0.3739300082824737 201:0.047619047619047616 202:0.12055992425002789 203:0.864773029712065 
-128.0 0.0 101:0.5914962470172552 102:0.04747665480217673 103:0.0024695945925819777 104:0.1375 105:0.049122813141899944 106:0.06334436751839322 112:0.04163832066928282 114:0.03449787668212464 115:0.046364624858200386 201:0.031746031746031744 202:0.002466308311520824 203:0.9248890583409323 
-0.0 14.981959057300088 101:0.5094475324604927 102:0.04267315963601565 103:0.0056027327468301125 104:0.1125 105:0.07429320104491445 106:0.055236127055341706 112:0.0370969516785345 114:0.10938812958924275 115:0.07587181112236709 201:0.06349206349206349 202:0.0055979035448822006 203:0.9363108232228222 
-0.0 33.4643253716507 101:0.46754043628413033 102:0.13206646857125084 103:0.036791236897250786 104:0.1 105:0.19132157673791073 106:0.18248921473378682 112:0.1560503964687479 114:0.2686715218096644 115:0.2101149798676051 201:0.047619047619047616 202:0.03677403823510865 203:0.9383888002722175 
-0.0 128.0 101:0.41833626895906245 102:0.11877337265724891 103:0.0311786992983946 104:0.1375 105:0.17607692148078713 106:0.14133804199579328 112:0.12070913392829091 114:0.21747322422357762 115:0.18739012663577378 201:0.047619047619047616 202:0.031137121188393985 203:0.9401453804430562 
-0.0 128.0 101:0.4093798248631015 102:0.1169925234134465 103:0.032032159020287006 104:0.1125 105:0.17847875327077553 106:0.14066900073005523 112:0.12065140496128542 114:0.24658099583889895 115:0.1902098718871497 201:0.047619047619047616 202:0.03201896903649897 203:0.9395764386325042 
-0.2662651889481362 117.25114412129909 101:0.8055417209648494 102:0.37359062888411537 103:0.0916862087292667 104:0.125 105:0.302375351084582 106:0.6474704674781805 112:0.5433994216612805 114:0.3131067076266372 115:0.31006407869505254 201:0.047619047619047616 202:0.09157565041420068 203:0.8928813112729356 
-0.0 12.009475967768116 101:0.5545865936302041 102:0.29395885594560467 103:0.07162321291466116 104:0.0875 105:0.2671819515188453 106:0.3726225434864255 112:0.3207191090772 114:0.2515085039296353 115:0.256388062165158 201:0.047619047619047616 202:0.07154033701184907 203:0.9036913078203608 
-0.0 128.0 101:0.46273556408087996 102:0.302324352406916 103:0.10494518449255875 104:0.075 105:0.32354326303554926 106:0.3774339801357622 112:0.33787391629614033 114:0.41267285630524575 115:0.349649273796304 201:0.047619047619047616 202:0.10483611097149627 203:0.8694751189233314 
-0.7854736531855148 68.35795913940403 101:0.3243117491423602 102:0.3026484543539298 103:0.17657780154884659 104:0.025 105:0.41986062227907245 106:0.39400241153420107 112:0.37823853243719985 114:0.5795524592145337 115:0.4448253857872725 201:0.015873015873015872 202:0.17634228380212316 203:0.8119764824052327 
-0.0 21.05917183503042 101:0.49625532869367733 102:0.259205350569322 103:0.1035502723687866 104:0.025 105:0.3213817978607375 106:0.46537658635959644 112:0.40514944025273525 114:0.36022713510718385 115:0.34978026935952294 202:0.10341215777322328 203:0.8660215277049365 
-0.0 44.30085671764761 101:0.4597860795385547 102:0.1786603668438465 103:0.05510747223546588 104:0.125 105:0.23428680377258593 106:0.16778185498571374 112:0.15408176853883374 114:0.23777835968245725 115:0.24721709397718103 201:0.06349206349206349 202:0.055068371292518875 203:0.9157277523709918 
-0.0 128.0 101:0.33822149088669884 102:0.1410359665669683 103:0.04692511939572492 104:0.125 105:0.21614814514727995 106:0.08170022436401772 112:0.08324050389290008 114:0.2720086013030412 115:0.21961841719172112 201:0.06349206349206349 202:0.04697655716270068 203:0.9325454884011303 
-0.0 128.0 101:0.409991691380433 102:0.15499661413058724 103:0.050946759847986085 104:0.125 105:0.22524544255878234 106:0.12618626580083495 112:0.11976754642321663 114:0.28738416167448483 115:0.24307829729676153 201:0.06349206349206349 202:0.05087940224465529 203:0.9242930891756271 
-0.0 128.0 101:0.4168682844687352 102:0.15425378169424817 103:0.03354349937364907 104:0.125 105:0.1826548003502913 106:0.11901782422978487 112:0.10450211409084116 114:0.19340736086422727 115:0.18358570007706365 201:0.06349206349206349 202:0.03350110724649383 203:0.9421098113578118 
-0.0 128.0 101:0.43590635154235124 102:0.1841934605688068 103:0.05446644466615102 104:0.125 105:0.23291664295203685 106:0.18938066547674373 112:0.1704613404202393 114:0.3250098199797644 115:0.2528755422383904 201:0.06349206349206349 202:0.05447457085180062 203:0.9174701714721818 
-0.0 79.65672667863839 101:0.3592355895088012 102:0.11727090964409802 103:0.03268216676631468 104:0.1 105:0.18028663226144437 106:0.11332730594783388 112:0.09955528507661537 114:0.1861814486526478 115:0.18580572031994086 201:0.047619047619047616 202:0.032703797268146456 203:0.9461321666708303 
-0.0 79.55545784445764 101:0.18264903876777763 102:0.1758596144500403 103:0.07636674392521152 104:0.1125 105:0.27590741222170473 106:0.053492908825815616 112:0.07930982520254067 114:0.2864281116578736 115:0.29053595899996415 201:0.047619047619047616 202:0.07629128475634897 203:0.9160464422750428 
-0.0 55.859087875208196 101:0.5397195361687551 102:0.18701443736082388 103:0.06556692833037649 104:0.05 105:0.25561024107720237 106:0.34626459591320835 112:0.2976390852256249 114:0.390956963484148 115:0.28183943942481743 201:0.015873015873015872 202:0.06551305981798869 203:0.9027945336986023 
-0.0 59.59599830724544 101:0.47063536504511116 102:0.09239248896285111 103:0.017373423289751833 104:0.125 105:0.1312835250579431 106:0.05620480864039631 112:0.04536351648025016 114:0.16255224166100887 115:0.14287009846827728 201:0.06349206349206349 202:0.017470681761007276 203:0.9407363426614451 
-0.0 128.0 101:0.6035386997859866 102:0.30651598340893116 103:0.09674061748417327 104:0.0625 105:0.31061455490458034 106:0.4195168553097248 112:0.36708821614190806 114:0.38939951551206853 115:0.3218045010004596 201:0.015873015873015872 202:0.09662060502793528 203:0.8886738080253036 
-0.0 128.0 101:0.5628389890646267 102:0.25254208828146735 103:0.071217420936619 104:0.125 105:0.2664222816138688 106:0.4762815104321152 112:0.4017484661654406 114:0.309672690917169 115:0.27714287332053894 201:0.047619047619047616 202:0.07115416306585841 203:0.900971947897818 
-0.0 75.34693386680304 101:0.7500310040343393 102:0.29556856948482496 103:0.0757707245525427 104:0.0875 105:0.27482625190888105 106:0.5750818019744415 112:0.4811530287530547 114:0.31391908671437946 115:0.29168199486818625 201:0.047619047619047616 202:0.07566967671638543 203:0.8944453519987237 
-0.0 23.37286189112366 101:0.5547896683402868 102:0.20463096573060527 103:0.036516278131127226 104:0.1 105:0.190603054956836 106:0.43310319484101656 112:0.35441331708100826 114:0.17825899198292197 115:0.1949775975255777 201:0.015873015873015872 202:0.03646761799255476 203:0.9348428739725295 
-0.0 128.0 101:0.671188352402951 102:0.24747115231349373 103:0.05481788471446172 104:0.0875 105:0.23366881888567698 106:0.4854196650142891 112:0.40290948787280545 114:0.29222349480462856 115:0.25140450893040067 201:0.047619047619047616 202:0.054747364080170335 203:0.9203356507123194 
-0.0 76.70291323950305 101:0.6676863496356632 102:0.22596833979986058 103:0.05664274472522798 104:0.0875 105:0.23753631564283204 106:0.45237853256974664 112:0.377457409498269 114:0.32794463679362207 115:0.26434535984005936 201:0.047619047619047616 202:0.05656787865284226 203:0.904209841806515 
-0.0 63.358467325237065 101:0.3063682103270102 102:0.14159513584219866 103:0.04075967806399948 104:0.0875 105:0.2014074787931217 106:0.10762263504725404 112:0.09970651733713894 114:0.2520850622445 115:0.2168263701181422 201:0.06349206349206349 202:0.04070790611235324 203:0.9352313950193573 
-0.0 128.0 101:0.3953931799503966 102:0.10243374938504168 103:0.02183234827768206 104:0.1375 105:0.14724248999995349 106:0.053020631504471546 112:0.04565895313698118 114:0.15163443700386672 115:0.15440858192919502 201:0.06349206349206349 202:0.021829830696829505 203:0.9612469157293683 
-0.0 14.738786074548104 101:0.37445031951515234 102:0.16529145476470417 103:0.028861528065218984 104:0.1625 105:0.1693848088974135 106:0.10927400503190025 112:0.09418627553381731 114:0.21091336622099668 115:0.16461763697999662 201:0.06349206349206349 202:0.02886016668140099 203:0.9535316057611701 
-0.0 128.0 101:0.39796527289707123 102:0.14927506968019894 103:0.024220114959751713 104:0.1375 105:0.15511759049403814 106:0.06800201069180634 112:0.058951528137133065 114:0.12389534685694532 115:0.14848761830345505 201:0.07936507936507936 202:0.024197769217653976 203:0.9556820678158121 
-0.0 128.0 101:0.48989609992264455 102:0.1685388621864322 103:0.03209982355698368 104:0.1375 105:0.1786678000931971 106:0.3017261131607455 112:0.24802946994543396 114:0.1977624921440869 115:0.18167578440703772 201:0.12698412698412698 202:0.032061186805337726 203:0.9498969477598306 
-0.0 47.97226701357079 101:0.751759971688713 102:0.22255534309227637 103:0.028072721431326806 104:0.15 105:0.167045759448197 106:0.4412232404565196 112:0.35760577336514504 114:0.13418807168861896 115:0.16064866182849058 201:0.015873015873015872 202:0.028050998261232467 203:0.9498315738781987 
-0.0 50.061618525049425 101:0.8452550546812557 102:0.1967180665692003 103:0.016971061503148508 104:0.15 105:0.12974735582122582 106:0.44009566682093004 112:0.35236753883511884 114:0.11109122139348879 115:0.13020718620615326 201:0.015873015873015872 202:0.01695692048703961 203:0.957618658329958 
-0.0 20.91799175847649 101:0.8869850886836009 102:0.18485422188109177 103:0.019507529411791787 104:0.175 105:0.13914928420720868 106:0.42717378617703905 112:0.3429782792127232 114:0.1621341512138667 115:0.1480458911613784 201:0.12698412698412698 202:0.019490943589542654 203:0.9595018155532445 
-0.0 59.84776563437345 101:0.7498632629212691 102:0.20413923833608497 103:0.017150003958745576 104:0.125 105:0.13043276032074547 106:0.3468857264381081 112:0.2775189256091936 114:0.11722988261093431 115:0.12258051147558983 201:0.015873015873015872 202:0.017152047788821068 203:0.9664497173043751 
-0.0 5.820575246877974 101:0.8360632973618046 102:0.20035350760038542 103:0.01823591145543793 104:0.175 105:0.13451757423934485 106:0.36517085175237374 112:0.2926640985367114 114:0.11018197806161678 115:0.12489249197660446 201:0.015873015873015872 202:0.01828072016133927 203:0.9589325437400892 
-0.0 26.471034898489222 101:0.7232166178466646 102:0.1971613761554082 103:0.02560910476791628 104:0.075 105:0.15952054337232044 106:0.3307614663540796 112:0.26828017832733364 114:0.15209194500258635 115:0.15877918506359717 201:0.015873015873015872 202:0.025574965366807777 203:0.9482938084898703 
-0.0 89.13408759541733 101:0.8551252913327295 102:0.24824836401836092 103:0.04081402308896534 104:0.1375 105:0.20154210537085776 106:0.5080371424816139 112:0.4157589913191765 114:0.2151956919232909 115:0.20960836285044637 201:0.047619047619047616 202:0.04083349065280085 203:0.9279179582637899 
-0.0 11.463432001946222 101:0.6905295699397096 102:0.2503768455363512 103:0.05082580362262024 104:0.0875 105:0.22497718040570572 106:0.5396115308417546 112:0.4444728439909333 114:0.309246809692975 115:0.2400063708786051 201:0.047619047619047616 202:0.050781075317935534 203:0.9227929030743112 
-0.0 128.0 101:0.717868186438196 102:0.22332890357835208 103:0.03727551882166767 104:0.15 105:0.19258060301529983 106:0.5093052824175228 112:0.4154856825130188 114:0.23304551959848377 115:0.19789766607544665 201:0.047619047619047616 202:0.03722851315662495 203:0.9337693247668475 
-0.0 59.48814604260464 101:0.8353971308612392 102:0.19331275263994127 103:0.024927598160377637 104:0.1375 105:0.15737557266785165 106:0.4441934211505311 112:0.35876170280162933 114:0.23328347765381263 115:0.1681675135845684 201:0.047619047619047616 202:0.02494649853170183 203:0.9488022997794233 
-0.0 112.83945215906854 101:0.7706973552965134 102:0.24619860818756695 103:0.043183101061205736 104:0.1125 105:0.2073262144135751 106:0.5170974726363169 112:0.42383679806746216 114:0.2573784231942474 115:0.22245410209008162 201:0.047619047619047616 202:0.043151546189813476 203:0.9306473922730398 
-0.0 57.33799057940731 101:0.6469738380252548 102:0.2124383443222703 103:0.030119006378663785 104:0.2125 105:0.17304847728328535 106:0.4350956136188747 112:0.3535031038039069 114:0.10358839240065885 115:0.15915150380675278 201:0.047619047619047616 202:0.03007904473471974 203:0.9538774320512579 
-0.0 128.0 101:0.6275721007705763 102:0.17902945849421573 103:0.033995984916185495 104:0.1 105:0.18388669605604013 106:0.3931805039907776 112:0.3216004694752124 114:0.23979659655613403 115:0.1965132096582073 201:0.047619047619047616 202:0.03396179910538316 203:0.9358189544607939 
-0.178115398481697 -0.0 101:0.5800006551783244 102:0.7492199457018893 103:0.3315725745826886 104:0.2875 105:0.5755665498040416 106:0.5617107727622517 112:0.5542328570989872 114:0.4701440209566162 115:0.5533178609810946 201:0.19047619047619047 202:0.3325244318360686 203:0.6094053063621861 
-0.11899399353479301 -0.0 101:0.6436888667189217 102:0.5987072270220045 103:0.2913567308211841 104:0.3125 105:0.5394960475547379 106:0.5906276499820646 112:0.5627734215362246 114:0.38612789255215146 115:0.5058918142614208 201:0.19047619047619047 202:0.29190813885444405 203:0.647030728115754 
-0.7345541942976528 -0.0 101:0.19303773664380133 102:0.22145642317712666 103:0.1013226690212764 104:0.3 105:0.31789963381467257 106:0.1847150876101937 112:0.19022169851102208 114:0.3855526360541493 115:0.33762324510147507 201:0.19047619047619047 202:0.1012825057063072 203:0.8917924248986492 
-3.2156195731550197 -15.744791253513664 101:0.21922398945867655 102:0.18696717492650508 103:0.044435669021094325 104:0.5 105:0.2103202711439294 106:0.12071882329863429 112:0.11193785305338244 114:0.21704132416500804 115:0.21557313735782505 201:0.19047619047619047 202:0.04448504230311232 203:0.9580528094950844 
-0.12579776709499038 -0.0 101:0.4875766572564861 102:0.33165241501446546 103:0.06634716648799063 104:0.425 105:0.25713019457902697 106:0.6650431633060631 112:0.5492919142338705 114:0.22807275708992722 115:0.2482960134820725 201:0.38095238095238093 202:0.06629299001904815 203:0.9287499763611945 
-0.0 -0.16927751205404856 101:0.6059427681641211 102:0.3313060612915017 103:0.06628998446643392 104:0.5375 105:0.2570191048909068 106:0.6127162048133803 112:0.5077545830786131 114:0.2547910641448199 115:0.2546656053229207 201:0.38095238095238093 202:0.06620341515936568 203:0.9292749077248488 
-0.3130351527627436 -0.30680667650358806 101:0.8388434350977234 102:0.3686675960281697 103:0.048359109671481694 104:0.5375 105:0.2194351045820851 106:0.6937487695132601 112:0.5665463606240676 114:0.20524569232123516 115:0.20997641974954295 201:0.38095238095238093 202:0.04834654538521605 203:0.9520857792545717 
-0.0 -1.4146809249835015 101:0.5649825196513453 102:0.32049213100114105 103:0.05591166158557374 104:0.3875 105:0.2359944930033087 106:0.6435937907857888 112:0.5289148520402349 114:0.2575844153125973 115:0.23958901913768554 201:0.1746031746031746 202:0.05584365582436792 203:0.9455718643580885 
-0.1775442689288316 -0.2568137542688923 101:0.36307880973303014 102:0.8959091440756339 103:0.916054185698258 104:0.2875 105:0.957081219556133 106:0.9610046375914965 112:0.9858335930290694 114:0.9925695799823252 115:1.0 201:0.1746031746031746 202:0.9208545406409548 203:0.152496035426272 
-0.09468914873691547 -0.11433894568446547 101:0.7704330713205476 102:0.8350709540264705 103:0.6185886593993157 104:0.2875 105:0.7863747848075591 106:0.8574995276007001 112:0.844759892595531 114:0.6398907506139653 115:0.7734383060031131 201:0.1746031746031746 202:0.6177743415312197 203:0.31473855369872217 
-0.3031340915898605 -0.49230461556512195 101:0.7372389276690794 102:0.7939999990074095 103:0.5986295020349373 104:0.2625 105:0.7735744749376544 106:0.9792748591385837 112:0.9276170216885332 114:0.9669159701698533 115:0.839710397347555 201:0.15873015873015872 202:0.5978310618906097 203:0.40655965378514336 
-0.20889707137167865 -0.2843607546872017 101:0.30425386131854487 102:0.7971441104059312 103:0.8569786596107717 104:0.2625 105:0.9256864402176789 106:1.0 112:1.0 114:1.0 115:0.9763205434840383 201:0.15873015873015872 202:0.8558542772935013 203:0.18901874684624428 
-0.3754243280841775 -0.5576192899160236 101:0.42620799829297756 102:0.8731810006749403 103:1.0 104:0.2625 105:1.0 106:0.804095994004057 112:0.8991983426687011 114:0.41487326542907244 115:0.9726197069923085 201:0.15873015873015872 202:1.0 
-5.210080863339966 -0.0 101:0.3063206722151278 102:0.2565875225659216 103:0.12362758657665873 104:0.275 105:0.3512146785546501 106:0.20718839860141305 112:0.21759769946816143 114:0.42646621631116105 115:0.37713993170013393 201:0.1746031746031746 202:0.12349962723803462 203:0.8612334885223348 
-2.30322615826061 -29.5188492487718 101:0.3729955062271493 102:0.20659331812169626 103:0.059189407725111415 104:0.275 105:0.2428308748732589 106:0.2124431994894827 112:0.19066959333573785 114:0.29365490700199015 115:0.2538303912896029 201:0.15873015873015872 202:0.059118247938386985 203:0.9264979170502622 
-0.0 -128.0 101:0.2826505916040924 102:0.23020502736093532 103:0.0856956111828653 104:0.2625 105:0.2923100988490651 106:0.33848205840893036 112:0.3000381633564691 114:0.30197163585546904 115:0.2961350229729079 202:0.08558971736751206 203:0.8883095208395542 
-0.0 -37.20194589310846 101:0.47925951038586473 102:0.2235524557474261 103:0.04725588762622731 104:0.2625 105:0.21691073167599875 106:0.3918180504051498 112:0.32590205019393753 114:0.19744243206699283 115:0.2188428772453312 201:0.07936507936507936 202:0.04719729214302744 203:0.9429836740553083 
-0.0 -2.758854704028613 101:0.4434028419398442 102:0.1825625928195418 103:0.04583400058547073 104:0.2875 105:0.21361332264856925 106:0.2631351149923984 112:0.22382703058856412 114:0.27887169815509805 115:0.2298313220277889 201:0.15873015873015872 202:0.0457740870894344 203:0.9459928554418745 
-0.0 -72.09002484050109 101:0.5232993864769528 102:0.1883697479691213 103:0.03971417253062767 104:0.35 105:0.1987997996450035 106:0.30058180448148286 112:0.25054014520673384 114:0.20699943643096935 115:0.19893244907670388 201:0.15873015873015872 202:0.039703363218685735 203:0.9495180052715113 
-0.0 -2.166892810865789 101:0.6393251594798876 102:0.17863950232541173 103:0.029316750685449783 104:0.3375 105:0.170720149368291 106:0.36978974924881974 112:0.3010203212287067 114:0.20590837551179314 115:0.1854583815367005 201:0.15873015873015872 202:0.029318227044529143 203:0.9563387215506978 
-0.0 -50.05840385987946 101:0.613869196058602 102:0.27796654105636204 103:0.05411714452194496 104:0.3375 105:0.23216663859045067 106:0.5644912581706646 112:0.4653917145988897 114:0.2183029565996865 115:0.2305397039066259 201:0.07936507936507936 202:0.05404614107626038 203:0.9400775666483265 
-0.07453488891218109 -0.17044224784984519 101:0.4926042688049868 102:0.8843432139124586 103:0.5460266557527028 104:0.3 105:0.738778072587911 106:0.6592212980305956 112:0.6863928512676415 114:0.5188980502661719 115:0.707468736428302 201:0.1746031746031746 202:0.5453530249251786 203:0.3733582039000683 
-0.22217198432071253 -0.3627518966623 101:0.6145742531759112 102:0.7519681813956923 103:0.501819151159347 104:0.3 105:0.7082153616084473 106:0.7469597503176814 112:0.7362945247225118 114:0.3577018792251256 115:0.6732511562948614 201:0.1746031746031746 202:0.5026929226155173 203:0.4711392672979295 
-0.20615077031046042 -0.2765530270562486 101:0.5371138534986895 102:0.8649463277620392 103:0.7188403328563586 104:0.2875 105:0.8477523760665007 106:0.7839348335714782 112:0.8179361070588785 114:0.35434711616117337 115:0.796885030352667 201:0.1746031746031746 202:0.7181952713840213 203:0.2000900241642156 
-0.0 -0.12600416532549147 101:0.2935781794749131 102:0.8783529078447432 103:0.7657886513674782 104:0.3125 105:0.875017865690217 106:0.8730053199823913 112:0.8908595856870046 114:0.6346722613963277 115:0.8602300998743425 201:0.1746031746031746 202:0.7647983015429171 203:0.2158807702477075 
-0.1706761416702961 -0.25208153787853493 101:0.6595511988272789 102:0.9158392048292554 103:0.7767896738847047 104:0.3 105:0.8812848718968843 106:0.9962017509394221 112:0.9797675859203124 114:0.6491873277341585 115:0.8920757659214326 201:0.1746031746031746 202:0.7757742450522209 203:0.2218307157485872 
-0.0651800768754039 -0.0 101:0.36799817166054394 102:1.0 103:0.7998544550259519 104:0.2875 105:0.8942818396855609 106:0.772562946469179 112:0.8302186225393297 114:0.7069549779347398 115:0.8667309934728825 201:0.1746031746031746 202:0.7988523337469693 203:0.15223272954712017 
-0.08396116452849747 -0.1486145899327853 101:0.6369786552622105 102:0.85538100126162 103:0.8460719660208242 104:0.2875 105:0.9197731459441713 106:0.8346339523936528 112:0.8834254468765834 114:0.8949490505551903 115:0.9241729963202217 201:0.1746031746031746 202:0.8473151964389875 203:0.19848524718288996 
-0.2711804910905361 -0.3246429411186761 101:0.28291288167863904 102:0.6776412724568843 103:0.4950765891525492 104:0.2625 105:0.7034373144881212 106:0.3525308800407608 112:0.46449609028421984 114:0.45864355641265153 115:0.6653642424739336 201:0.1746031746031746 202:0.49584421756944413 203:0.4185479181728031 
-0.055697253214986794 -0.0 101:0.10285123338554025 102:0.6483150107529922 103:0.4432520952739924 104:0.2875 105:0.6655694149427656 106:0.32367142782997727 112:0.4276483326569683 114:0.4988381316669499 115:0.6639225701763745 201:0.1746031746031746 202:0.44266297468496274 203:0.58022147387942 
-0.1774663696266007 -0.29567818146649816 101:0.07157586441945901 102:0.6264216411084892 103:0.645697567580786 104:0.2875 105:0.8034341232901958 106:0.44040957128407465 112:0.5696447341174922 114:0.856267140320572 115:0.8508425116809182 201:0.1746031746031746 202:0.644873005924601 203:0.39653996172839123 
-0.0 -0.06938184103463972 101:0.21233552025209246 102:0.6678133126290684 103:0.5344760049730022 104:0.2875 105:0.730915808710236 106:0.4182491341034996 112:0.5202238264295317 114:0.8043877889009878 115:0.7686205402937069 201:0.1746031746031746 202:0.5338353227395054 203:0.5045637667172306 
-0.09795236976411194 -0.0 101:0.3537802081630808 102:0.5734090915466427 103:0.4234825776343914 104:0.275 105:0.6505439099031725 106:0.5853421318565791 112:0.5992981171415934 114:0.7945543948502456 115:0.7098736924724783 201:0.1746031746031746 202:0.42315155072866734 203:0.5554701232165731 
-0.25319751969858334 -0.29217393996498786 101:0.19074206604518731 102:0.7415549029505066 103:0.7256758436020445 104:0.2875 105:0.8517763846339008 106:0.5940669223408057 112:0.69207017833468 114:0.9706981824981047 115:0.9023147967730226 201:0.1746031746031746 202:0.7247220367840443 203:0.2838018501314202 
-0.25799354627372595 -0.3870081254749889 101:0.12044596648932664 102:0.8022233231075572 103:0.7614400078254959 104:0.2875 105:0.8725281478052005 106:0.5041303406773706 112:0.6443721949839628 114:0.582628723261807 115:0.8562868173636391 201:0.1746031746031746 202:0.7604543921575819 203:0.21886375389137572 
-0.2525750494492926 -0.0 101:0.3739350516605857 102:0.6099459397408038 103:0.33408396467932294 104:0.375 105:0.5777444483010152 106:0.7979684692410257 112:0.7289135930804781 114:0.7120699984866281 115:0.6132588260742394 201:0.19047619047619047 202:0.33368044292622884 203:0.6315179030663266 
-0.3061716703106555 -0.42045347028042346 101:0.8496545227028004 102:0.5650002014684063 103:0.2981938429909429 104:0.325 105:0.5457964345882053 106:0.9004192426378644 112:0.796884381431954 114:0.5700738254073545 115:0.5590043941822518 201:0.19047619047619047 202:0.29782766129571725 203:0.6450539099783659 
-0.10188683137859349 -0.0 101:0.6259017128763609 102:0.6129645683227513 103:0.44006293509241184 104:0.325 105:0.663168553616215 106:0.9055339557346741 112:0.836021807288868 114:0.7362938114264153 115:0.7011076504692922 201:0.1746031746031746 202:0.43961442405178247 203:0.49982689206671516 
-0.0 -0.3142216590147737 101:0.5978954551806939 102:0.5872997176330407 103:0.39386512681000335 104:0.3 105:0.6273612427567148 106:0.8205203989081777 112:0.7614418699801252 114:0.8132373618071557 115:0.6749582738828522 201:0.1746031746031746 202:0.3945385420098844 203:0.5637266744217341 
-0.20295484315359416 -0.0 101:0.1002417458111161 102:0.37364634645548545 103:0.36682925559333485 104:0.2875 105:0.6054255332304829 106:0.25840221965388815 112:0.35662020523477844 114:0.8726625525639754 115:0.6927523108905134 201:0.1746031746031746 202:0.3663748575558044 203:0.648019158589726 
-10.16044329204837 -0.0 101:0.2670166131775029 102:0.1914548516538472 103:0.07826391818903708 104:0.1375 105:0.279321027586833 106:0.045304951062865396 112:0.07439377742752348 114:0.3636970134565954 115:0.29637848881302037 201:0.07936507936507936 202:0.07817755013561015 203:0.9083520759112613 
-12.131068394557357 -95.07838623194928 101:0.35183056477332963 102:0.15949197018644046 103:0.051226960440989434 104:0.175 105:0.22586566335134545 106:0.06089426880885336 112:0.06987050725889858 114:0.29548518914707705 115:0.23785896048973296 201:0.07936507936507936 202:0.051162103931531165 203:0.9454389862404784 
-0.0 -128.0 101:0.3822996918396645 102:0.10983105447954418 103:0.039918879563514705 104:0.1375 105:0.19931305379196784 106:0.08445354901056999 112:0.08124550345843588 114:0.2760154852841263 115:0.2280058328596902 201:0.07936507936507936 202:0.039879443244455984 203:0.9417899053158868 
-0.0 -38.282091799014 101:0.2244046006579691 102:0.19768198173972296 103:0.08369167247814872 104:0.1375 105:0.2888650235762086 106:0.12487022972635625 112:0.13651203226104475 114:0.2716408939085779 115:0.29501446407269366 201:0.07936507936507936 202:0.08370400666152383 203:0.8906794831483473 
-0.19567464808904242 -0.0 101:0.2817020274663606 102:0.2094276029271113 103:0.10585265672948764 104:0.1375 105:0.3249417181896676 106:0.11430838613393432 112:0.14050381888179775 114:0.421600089461509 115:0.3456276088235593 201:0.07936507936507936 202:0.1059474293393881 203:0.8953584209954578 
-2.31608642038581 -0.0 101:0.2862091835628133 102:0.18871738368574195 103:0.11108965652903664 104:0.15 105:0.33289761895303244 106:0.1469084033231742 112:0.16710296798593835 114:0.4942908561392794 115:0.3692142189409906 201:0.07936507936507936 202:0.1110381812805442 203:0.8784741005524545 
-43.67212293413138 -128.0 101:0.43817252291531367 102:0.08392827680638645 103:0.014929731797294832 104:0.15 105:0.12165680543178994 106:0.0613177292281996 112:0.0478876674898397 114:0.13105208307766097 115:0.12270139351494531 201:0.07936507936507936 202:0.014911591160502667 203:0.9488345622720236 
-0.0 -128.0 101:0.389595721779241 102:0.09553375735225982 103:0.021327931918264865 104:0.15 105:0.14552458641626576 106:0.0663518960315314 112:0.055867048028665225 114:0.19998782031441617 115:0.1502824102627924 201:0.07936507936507936 202:0.021328028262520143 203:0.9584961116636568 
-0.0 -128.0 101:0.34346078848604317 102:0.11617108449710892 103:0.030848511612063964 104:0.15 105:0.1751388914499436 106:0.11080261312628292 112:0.09652783631408735 114:0.2412900880396531 115:0.1845339303109458 201:0.07936507936507936 202:0.030819410853729447 203:0.9415423953155503 
-0.0 -128.0 101:0.3730147113191148 102:0.08479531796578389 103:0.017803691775413688 104:0.15 105:0.1329066839966503 106:0.08687030268938499 112:0.06997475258894144 114:0.14609419966359002 115:0.14029567791553 201:0.07936507936507936 202:0.017790057065668864 203:0.9591989905170255 
-0.0 -128.0 101:0.3755904166603449 102:0.09818388842076069 103:0.02387594151855258 104:0.15 105:0.1540072143735708 106:0.0738212629446202 112:0.06332532380278101 114:0.17721279729847278 115:0.16202230194168407 201:0.07936507936507936 202:0.023870110134788604 203:0.952691960362184 
-0.0 -128.0 101:0.4165814633010281 102:0.0866758936080814 103:0.018155674194033446 104:0.15 105:0.1342199834260922 106:0.06525555156359493 112:0.053032284828670145 114:0.16047337120907001 115:0.1376389248359863 201:0.07936507936507936 202:0.01813145910548382 203:0.9529544751182885 
-0.0 -128.0 101:0.4783274381496388 102:0.09213168618441997 103:0.013773733189851133 104:0.1625 105:0.11682821104516142 106:0.07206592028775485 112:0.05573138256371037 114:0.16234632230580356 115:0.12082463275887635 201:0.07936507936507936 202:0.013762104258936952 203:0.960793649965918 
-0.0 -128.0 101:0.4553351736581423 102:0.0857478744454954 103:0.014633223300995481 104:0.15 105:0.12043666078472079 106:0.08860530575154289 112:0.06944703546860077 114:0.14530536475033268 115:0.1238960679951589 201:0.07936507936507936 202:0.014617011238160529 203:0.9535309454800114 
-0.0 -128.0 101:0.43090931549080713 102:0.10417099625844943 103:0.021583031099427462 104:0.1375 105:0.1463958933420155 106:0.08770225967217292 112:0.0729023079551057 114:0.20876092347926906 115:0.15800545215866305 201:0.07936507936507936 202:0.021562720216782925 203:0.9447419666450936 
-0.0 -128.0 101:0.4779848742247822 102:0.09817439649524201 103:0.022228715667048347 104:0.1625 105:0.1485785292899935 106:0.06714272806334924 112:0.05704787564522556 114:0.18925531367253867 115:0.164047169870837 201:0.07936507936507936 202:0.022218837579613775 203:0.9566758062792329 
-0.0 -128.0 101:0.390145357898727 102:0.1098499673929851 103:0.025875507434620436 104:0.15 105:0.1603512472355425 106:0.10717664415746636 112:0.09081142847365518 114:0.2136841339037217 115:0.17887836771274923 201:0.07936507936507936 202:0.025843371167136746 203:0.9553459324747848 
-0.0 -128.0 101:0.39584441877892085 102:0.10387137539406045 103:0.0259645153684642 104:0.15 105:0.16062784027125857 106:0.09547743473103777 112:0.08164125648594149 114:0.19716910746647054 115:0.17023898539085014 201:0.07936507936507936 202:0.025938611564350064 203:0.9472846589057141 
-0.0 -128.0 101:0.3870847739438956 102:0.10605377593029161 103:0.03007786341909228 104:0.1375 105:0.17292983104331255 106:0.06593317082682494 112:0.06092178464320498 114:0.22337788853844673 115:0.1802750160947301 201:0.07936507936507936 202:0.03005768912210253 203:0.938592850515781 
-0.0 -128.0 101:0.37712711762700407 102:0.1146288110563333 103:0.03176056887843371 104:0.15 105:0.17771794552110856 106:0.07433176827889398 112:0.06850737166103597 114:0.1967110214618465 115:0.19119313974976043 201:0.07936507936507936 202:0.03172071853137443 203:0.951880188626125 
-0.0 -128.0 101:0.4680247944172813 102:0.09294760446900371 103:0.01864075343206007 104:0.15 105:0.13600920031644076 106:0.08340382288155 112:0.06772693611610113 114:0.15551888888821014 115:0.14381507228822 201:0.07936507936507936 202:0.0186219459620132 203:0.945866880158018 
-0.0 -94.52906958138401 101:0.40832932175994324 102:0.10375932768224111 103:0.02621592113248438 104:0.15 105:0.16140653567258123 106:0.0844870318930587 112:0.07313733560061647 114:0.20917286602537807 115:0.16738751305805175 201:0.07936507936507936 202:0.02618860094573901 203:0.9597143827889049 
-0.0 -128.0 101:0.40015546157904336 102:0.10947101382735175 103:0.032874539709929616 104:0.1375 105:0.18081822799951203 106:0.08209205151359582 112:0.07523525208453158 114:0.24175227734411397 115:0.1968976047769422 201:0.07936507936507936 202:0.032883585462277605 203:0.9490840395832121 
-0.0 -128.0 101:0.3151595511353982 102:0.12052763167147272 103:0.035954686988152074 104:0.15 105:0.18912705170268085 106:0.08677646110264096 112:0.08071313914819755 114:0.19751934391788187 115:0.20153829465991238 201:0.07936507936507936 202:0.035914591395695014 203:0.948694401611614 
-0.0 -128.0 101:0.34093448585571223 102:0.13272125426990153 103:0.038771362970528564 104:0.1375 105:0.19641867025857274 106:0.057235536275539255 112:0.05949106686394186 114:0.2023677032679162 115:0.19860119420874675 201:0.07936507936507936 202:0.038765046799336594 203:0.9456506428552592 
-0.0 -128.0 101:0.3555696692453913 102:0.11943154102375471 103:0.03651731332225928 104:0.15 105:0.19060576518003725 106:0.08564518899526533 112:0.08016470774900565 114:0.17659328239777272 115:0.2014311749369934 201:0.07936507936507936 202:0.036555809403909616 203:0.9443618994566934 
-0.0 -128.0 101:0.37621704006895074 102:0.13732379795474114 103:0.039970531787663535 104:0.15 105:0.19944235139415495 106:0.1191228870055075 112:0.10820160459155868 114:0.2629311871827204 115:0.2115954046387286 201:0.07936507936507936 202:0.03995299495604083 203:0.9408845181574332 
-0.0 -126.116162709167 101:0.30499784319592393 102:0.11379996476241107 103:0.04061756335899789 104:0.15 105:0.20105499936928645 106:0.1302818362865281 112:0.11724998455117898 114:0.2476117072640067 115:0.2155291238229797 201:0.07936507936507936 202:0.04060927938703347 203:0.9349547158211189 
-0.0 -128.0 101:0.39327808538252534 102:0.10692838667956583 103:0.022935467395843335 104:0.15 105:0.15093155998796823 106:0.09348077392640544 112:0.07827692033011403 114:0.17119572717455223 115:0.15138917720734965 201:0.07936507936507936 202:0.022953078907575673 203:0.9628231842088418 
-0.0 -88.27148514009005 101:0.3450256388489391 102:0.12778782599328084 103:0.03840522365718824 104:0.15 105:0.1954861661305643 106:0.10095368005602547 112:0.09317425154282531 114:0.20594645143961252 115:0.20633791617855615 201:0.07936507936507936 202:0.03836304574008786 203:0.9430383359633286 
-0.0 -128.0 101:0.42483483638982517 102:0.12686551719416012 103:0.038794455831623574 104:0.1375 105:0.19647733653571506 106:0.12274345279212828 112:0.11036331080303965 114:0.26252150974227983 115:0.21598420887816047 201:0.07936507936507936 202:0.03874271383480817 203:0.935279228818794 
-0.0 -128.0 101:0.41240111377862815 102:0.13026584059713284 103:0.03281233069339781 104:0.15 105:0.18064649264945987 106:0.09110274444831933 112:0.08223746493378124 114:0.19081102525412455 115:0.18794670322751056 201:0.07936507936507936 202:0.032800562667497785 203:0.9541513986937812 
-0.0 -128.0 101:0.2769366544422972 102:0.13626359334282795 103:0.03560998349075414 104:0.1375 105:0.18821536963766192 106:0.08631112873459176 112:0.08014741846909107 114:0.24327201871298892 115:0.1987338186475533 201:0.07936507936507936 202:0.03557401826564952 203:0.9420233488928716 
-0.0 -128.0 101:0.3112190642259328 102:0.09908458091791161 103:0.031553508605261765 104:0.1125 105:0.1771357179982322 106:0.09172998355705979 112:0.08198764980111194 114:0.20970452832223735 115:0.1846236551604173 201:0.07936507936507936 202:0.031513587101083845 203:0.9432688829229458 
-0.0 -128.0 101:0.4299786831499195 102:0.11879939595934569 103:0.032484406197778704 104:0.1375 105:0.17973851517314224 106:0.12462693175479782 112:0.10830345187655631 114:0.27759938449035526 115:0.19805937237191587 201:0.07936507936507936 202:0.032444665457336014 203:0.9409648830417428 
-0.0 -117.68823658706792 101:0.34025739021118445 102:0.16910386307939976 103:0.056819479387603684 104:0.125 105:0.23790754545185364 106:0.11275986683960172 112:0.1127070576167725 114:0.30495210787239424 115:0.25181524773407593 201:0.07936507936507936 202:0.056744500620152565 203:0.9250503527817375 
-0.0 -128.0 101:0.3794787799099462 102:0.18111180358856754 103:0.07051806455777794 104:0.1375 105:0.26510794239759955 106:0.23972993230689857 112:0.21717172737639653 114:0.36177243127344305 115:0.2769299472524551 201:0.031746031746031744 202:0.07045303609696735 203:0.9008518379938328 
-0.0 -128.0 101:0.493158482884531 102:0.19905050554209755 103:0.0557595891741329 104:0.1125 105:0.23567251482232762 106:0.3001405169238315 112:0.2573474009264047 114:0.30392554040820663 115:0.2429415354670859 201:0.031746031746031744 202:0.05578177137032848 203:0.9242395108242552 
-0.0 -121.52475172811971 101:0.549624102182143 102:0.21108679363557292 103:0.0709991609517267 104:0.1625 105:0.2660127890343749 106:0.3055413406928766 112:0.26826655995240256 114:0.4093570526770871 115:0.28389554939463113 201:0.031746031746031744 202:0.07093355800952103 203:0.9146758584381045 
-0.0 -25.910332765089322 101:0.4591059980612478 102:0.18518931321663687 103:0.0511743367863463 104:0.15 105:0.2257493111079515 106:0.2676044629888403 112:0.22980701919392957 114:0.2915049254320001 115:0.241602453131479 201:0.07936507936507936 202:0.051121174841214395 203:0.937927419141169 
-0.0 -128.0 101:0.3653565780979595 102:0.2054584736218055 103:0.05622519447369391 104:0.1625 105:0.23665694733583323 106:0.2502068895722036 112:0.21857279445050712 114:0.2612253002673312 115:0.2351778446974845 201:0.07936507936507936 202:0.05625076291730703 203:0.9341656237077682 
-0.0 -128.0 101:0.4417725766940294 102:0.19130416593775484 103:0.047326889368054265 104:0.1125 105:0.21707407799223963 106:0.2996937503097518 112:0.25324401346305964 114:0.26239131609454275 115:0.22247864346250604 201:0.07936507936507936 202:0.04728724919528134 203:0.9357099345748447 
-0.0 -128.0 101:0.5081687650280303 102:0.1862733818035679 103:0.04515423651022291 104:0.1125 105:0.21201885802246123 106:0.2858912045880689 112:0.24140543585015867 114:0.27619856337131904 115:0.22211831336404556 201:0.07936507936507936 202:0.04514242766577589 203:0.9365035772021811 
-0.0 -128.0 101:0.45876992960526064 102:0.21133606839440175 103:0.06353746925688132 104:0.15 105:0.2516138315337808 106:0.2657473116653449 112:0.23404821889234642 114:0.2975478442326946 115:0.2659669742996496 201:0.031746031746031744 202:0.06349397637926603 203:0.9235656433831466 
-0.0 -128.0 101:0.6628457886691139 102:0.18391742468327357 103:0.030501454933167863 104:0.15 105:0.17414751086839106 106:0.33355842023353344 112:0.2726424662270996 114:0.2233441708104718 115:0.17960814612302242 201:0.07936507936507936 202:0.030462145091749583 203:0.9431757958912312 
-0.0 -128.0 101:0.4855382850769609 102:0.18832046556111073 103:0.045048690836782035 104:0.1125 105:0.21177021489857337 106:0.3509960292247763 112:0.29270966276736576 114:0.24665570561733696 115:0.22495241520916212 201:0.031746031746031744 202:0.045023356518131066 203:0.9340645164343646 
-0.0 -128.0 101:0.5048001677525077 102:0.195956943840194 103:0.04611252063122154 104:0.1125 105:0.21426320627930165 106:0.27535319366969097 112:0.2335548709184631 114:0.23780371990104585 115:0.22458264994956068 201:0.07936507936507936 202:0.04605118600288507 203:0.9374694810884451 
-0.0 -46.161958016140595 101:0.4374914493103103 102:0.18034553158210723 103:0.053321260782955765 104:0.15 105:0.23044865355336575 106:0.19025841289306264 112:0.17056316666446283 114:0.33224018081932244 115:0.2526640935910414 201:0.07936507936507936 202:0.0533009288323197 203:0.9385724354108229 
-0.0 -55.00870774782893 101:0.5601253728296216 102:0.19437095665669116 103:0.03751224217179514 104:0.1375 105:0.1931930553187672 106:0.36243443351777427 112:0.2985975983278612 114:0.22464990593499123 115:0.19295950810746468 201:0.07936507936507936 202:0.03749638762627344 203:0.9469599809835241 
-0.0 -81.13680565288995 101:0.5100992346852434 102:0.18943488411946213 103:0.048427970305699834 104:0.15 105:0.21959171070286782 106:0.27028130035413017 112:0.23063773201659718 114:0.2807647354722118 115:0.2353615786645554 201:0.07936507936507936 202:0.04839079446677658 203:0.9467168601314236 
-0.0 -102.65456995668384 101:0.5455740015568581 102:0.21150293764828906 103:0.050311171201872625 104:0.1375 105:0.22383222118423307 106:0.31944465437727493 112:0.27009480319592033 114:0.2696298366772081 115:0.2448064561385096 201:0.07936507936507936 202:0.050381707494413286 203:0.9377396344210576 
-0.8571007050949264 -0.0 101:0.25209116438318424 102:0.27493723019101673 103:0.12246768247903211 104:0.2125 105:0.34956036040393845 106:0.13212404179724047 112:0.16212500328135712 114:0.2524068537066095 115:0.33898568335074974 201:0.07936507936507936 202:0.1223459192890354 203:0.8336793347716838 
-0.0 -6.3978712577985934 101:0.2810085649957983 102:0.298700400552712 103:0.13346182173811363 104:0.15 105:0.3649400902581994 106:0.17387868370756113 112:0.19789095402551685 114:0.3427118832690536 115:0.37002928891485226 201:0.07936507936507936 202:0.1332875807228704 203:0.8267908920224841 
-0.0 -61.17249589482023 101:0.172125690218017 102:0.2914447132853895 103:0.058868198935957065 104:0.125 105:0.24216943935648086 106:0.07921338489777521 112:0.08831888865816608 114:0.2083072357374331 115:0.22370738625844533 201:0.06349206349206349 202:0.05903731558799671 203:0.9304163143518941 
-0.0 -2.9081577092264044 101:0.3773497017718287 102:0.2591823826117681 103:0.11052646648775583 104:0.125 105:0.33205116770857596 106:0.2587990340232337 112:0.25004781311262486 114:0.3943870333016342 115:0.3532086967893893 201:0.07936507936507936 202:0.11040015552340107 203:0.8826598711696496 
-0.0 -3.573047529874708 101:0.23399105991157565 102:0.3224653559287053 103:0.16899561724974063 104:0.0875 105:0.41073425641589184 106:0.22640760614864758 112:0.25238336136784423 114:0.25212770989290295 115:0.4021897851594925 201:0.06349206349206349 202:0.16877060357993298 203:0.8080934066039411 
-0.0 -7.991877783823999 101:0.666162929342798 102:0.35131050656972396 103:0.08761466306525212 104:0.125 105:0.2955716810206155 106:0.4374433421978874 112:0.37751038722812874 114:0.3497537048768975 115:0.2997333706762818 201:0.07936507936507936 202:0.08750055779245515 203:0.9032466311299762 
-0.0 -128.0 101:0.6536643278238885 102:0.31319955405446026 103:0.07533972770820485 104:0.1375 105:0.27404178568195087 106:0.5915865521171151 112:0.4940328628694665 114:0.32251089069446104 115:0.2825782860117991 201:0.06349206349206349 202:0.0754877497064263 203:0.9060657824678693 
-0.0 -100.39219586507069 101:0.5100461865564311 102:0.3208410441067342 103:0.10663810237150313 104:0.15 105:0.32614729289778494 106:0.5207282883250766 112:0.4492008429781765 114:0.4028342503990254 115:0.35470182977971515 201:0.06349206349206349 202:0.106543583549449 203:0.875456702046348 
-1.0777107415515355 -128.0 101:0.32937496898407415 102:0.1447713275735137 103:0.038907512041691954 104:0.2375 105:0.1967642986109989 106:0.14773252932475003 112:0.1299317998559567 114:0.2327058537775931 115:0.20603887207899993 201:0.15873015873015872 202:0.038913847950237494 203:0.9545964431899294 
-0.31570961523844066 -33.37006544277342 101:0.7850641459499053 102:0.3561949288739171 103:0.07078173845249261 104:0.1375 105:0.26560424144714634 106:0.7477293642737031 112:0.6163574943436594 114:0.28933808771472985 115:0.2770457213462295 202:0.07068763489706836 203:0.90185601521666 
-0.0 -36.64841043535063 101:0.8107019837192604 102:0.34525565141603215 103:0.09766388192800951 104:0.1375 105:0.3120961222089999 106:0.6260689685387409 112:0.5284830683738931 114:0.3576286620587361 115:0.3324014903735262 201:0.031746031746031744 202:0.09758923649902913 203:0.87803649804092 
-0.0 -35.50103679563871 101:0.3842840355063458 102:0.2433883396647025 103:0.07745472157636792 104:0.2 105:0.2778701451476524 106:0.45853029745441476 112:0.3901407367858681 114:0.27180443400630133 115:0.28306077551676007 201:0.09523809523809523 202:0.0774612418475631 203:0.904342901334826 
-0.0 -9.482307534804757 101:0.24242671914191957 102:0.26151224767088055 103:0.1068920925304164 104:0.1375 105:0.32653618990246797 106:0.20618070648290912 112:0.208934332724357 114:0.3761320874047146 115:0.33743820044415374 201:0.07936507936507936 202:0.10680468017006857 203:0.8870347667194806 
-0.0 -128.0 101:0.361719116596038 102:0.11244111283068974 103:0.024746892508688792 104:0.15 105:0.1568019179605837 106:0.10066012911670225 112:0.08501338759397295 114:0.20129918072962372 115:0.16255565359848184 201:0.09523809523809523 202:0.024714141985514578 203:0.9448454675448599 
-0.0 -128.0 101:0.29353558188139234 102:0.1839419731626376 103:0.06332376801854923 104:0.1625 105:0.2511893200026588 106:0.17649341808013483 112:0.1650154579847264 114:0.32082610352642893 115:0.2732323323047524 201:0.07936507936507936 202:0.06324138361032096 203:0.90817058981852 
-0.0 -1.2434832544331558 101:0.27266115580646083 102:0.17388057931106285 103:0.06748750385841727 104:0.15 105:0.25933565778620665 106:0.13174388090985173 112:0.13300975156794226 114:0.3587866178157861 115:0.26912452339862375 201:0.031746031746031744 202:0.0674394611927995 203:0.9114214295702273 
-0.0 -45.809428499 101:0.1595365853489896 102:0.19003315657096126 103:0.08091747315000754 104:0.1125 105:0.2840269422921243 106:0.1883019042275661 112:0.18286836565971176 114:0.37407019621806237 115:0.29443378734182635 201:0.07936507936507936 202:0.08085010063407352 203:0.9067650989262077 
-0.0 -128.0 101:0.2683224859792427 102:0.15463485153598497 103:0.06038605019688768 104:0.0875 105:0.24527934898865233 106:0.10041339235708371 112:0.10528922735528486 114:0.343892652862794 115:0.25867815822570783 201:0.031746031746031744 202:0.06031782971740693 203:0.9183052326281039 
